<?xml version="1.0"?>
<opencv_storage>
<opencv_ml_svm>
  <format>3</format>
  <svmType>C_SVC</svmType>
  <kernel>
    <type>LINEAR</type></kernel>
  <C>1.0000000000000000e-02</C>
  <term_criteria><epsilon>1.1920928955078125e-07</epsilon>
    <iterations>1000</iterations></term_criteria>
  <var_count>3780</var_count>
  <class_count>3</class_count>
  <class_labels type_id="opencv-matrix">
    <rows>3</rows>
    <cols>1</cols>
    <dt>i</dt>
    <data>
      -1 0 1</data></class_labels>
  <sv_total>3</sv_total>
  <support_vectors>
    <_>
      3.03781038e-04 3.97740747e-04 4.23481251e-04 1.54229742e-03
      4.09970991e-03 6.20266597e-04 2.85283866e-04 3.76230368e-04
      4.65392979e-04 1.00054033e-03 1.02579431e-03 8.74935766e-04
      2.36927066e-03 4.09970991e-03 8.73550714e-04 4.02860518e-04
      4.31983499e-04 6.43617823e-04 4.77458671e-05 1.37486146e-04
      3.33891658e-04 2.03625322e-03 4.09970991e-03 7.92075298e-04
      2.70992285e-04 1.74439163e-04 1.26460611e-04 4.79550188e-04
      9.97684198e-04 1.06319308e-03 2.97525385e-03 4.09970991e-03
      1.48709933e-03 2.65359966e-04 3.53888434e-04 3.57050012e-04
      7.91940372e-04 3.46961955e-04 4.53669491e-04 6.72088994e-04
      3.27388383e-03 5.48229204e-04 2.20335598e-04 2.23866620e-04
      6.67747052e-04 3.68461083e-03 7.53464235e-04 1.18264405e-03
      1.68445439e-03 3.98245547e-03 4.18223441e-04 1.50759151e-04
      2.30251288e-04 2.74282135e-03 2.19000707e-04 3.70424095e-04
      3.62444407e-04 7.45258934e-04 3.98245547e-03 1.31624448e-03
      1.04114173e-04 1.46318402e-04 1.21369521e-04 6.81198610e-04
      3.29444360e-04 5.74919744e-04 2.73729675e-03 3.98245547e-03
      1.25395809e-03 3.26631824e-04 2.55785475e-04 3.28855589e-04
      3.52003099e-03 9.04305140e-04 9.33755771e-04 1.01661624e-03
      2.22084206e-03 1.09574183e-04 1.91471467e-04 2.96711427e-04
      3.52003099e-03 3.52003099e-03 5.64229384e-04 3.73339310e-04
      1.43307043e-04 6.60589722e-05 1.30133529e-04 3.08051938e-04
      2.59529799e-04 3.52003099e-03 1.66117074e-03 7.09682470e-04
      1.05738628e-03 2.29931786e-03 3.52003099e-03 4.75648150e-04
      7.50093022e-04 5.45992574e-04 1.16094272e-03 2.38030846e-03
      8.06778378e-04 1.25547929e-03 8.80974752e-04 8.20557354e-04
      5.41494461e-04 1.11913669e-03 5.98675164e-04 2.42734817e-03
      3.88466893e-03 4.10442357e-04 2.06419660e-04 2.71553523e-04
      7.46356964e-05 9.45205029e-05 3.05900787e-04 3.50864691e-04
      3.88466893e-03 3.88466893e-03 5.69499331e-04 2.50451150e-04
      2.48076132e-04 1.83714757e-04 5.08521698e-05 2.71127443e-04
      4.64968121e-04 3.88466893e-03 2.42506526e-03 7.09086831e-04
      8.59231804e-04 1.04441133e-03 6.21013693e-04 5.09172736e-04
      1.12391857e-03 7.48646620e-04 2.36879149e-03 2.99963378e-03
      9.62977763e-04 8.77394399e-04 8.74073943e-04 9.94148548e-04
      6.39386708e-04 9.41816659e-04 7.63892429e-04 2.70914007e-03
      3.85517487e-03 4.36640461e-04 1.80714356e-04 1.08598397e-04
      2.44745868e-04 8.19364359e-05 1.87507219e-04 2.81827495e-04
      3.85517487e-03 3.85517487e-03 2.87824107e-04 1.73455119e-04
      7.09193919e-05 4.70021914e-04 2.15130043e-04 2.49463134e-04
      4.11250803e-04 3.85517487e-03 2.60317838e-03 7.82920572e-04
      5.61315799e-04 4.28600761e-04 9.14236996e-04 5.59241860e-04
      6.07779308e-04 3.70503491e-04 2.64808978e-03 2.84523400e-03
      5.51969046e-04 5.23611845e-04 5.61231282e-04 1.56225276e-03
      6.67263055e-04 7.94529042e-04 6.75089948e-04 3.10073653e-03
      3.32811987e-03 2.98235624e-04 2.36306543e-04 4.97878122e-04
      1.27809239e-03 2.55125749e-04 2.05841716e-04 5.87517221e-04
      3.32811987e-03 3.32811987e-03 9.62761813e-04 4.23466961e-04
      1.11458427e-03 2.08598981e-03 3.90937959e-04 1.66440703e-04
      5.89641684e-04 3.32811987e-03 1.33002491e-03 2.12653336e-04
      2.93527555e-04 1.48662040e-03 3.32811987e-03 1.03694806e-03
      5.15989377e-04 5.25359821e-04 1.76767702e-03 1.51529268e-03
      4.66067228e-04 2.34184990e-04 2.73958780e-03 3.32811987e-03
      1.55415770e-03 3.01636348e-04 3.05825291e-04 1.40579254e-03
      3.62388790e-03 3.08113522e-04 1.02962666e-04 3.39237711e-04
      3.10818409e-03 9.53812385e-04 5.59385750e-04 6.19944942e-04
      3.62388790e-03 1.55542325e-03 6.29751157e-05 5.28233031e-05
      2.39367539e-04 3.62388790e-03 1.45434064e-03 1.02973543e-03
      8.37568776e-04 2.95547745e-03 9.52603121e-04 1.67161343e-04
      8.08153854e-05 1.05561560e-03 3.62388790e-03 1.09196012e-03
      2.75901897e-04 2.39647168e-04 1.03122159e-03 2.94745085e-04
      1.31503068e-04 2.71996978e-04 1.09179865e-03 3.62388790e-03
      1.01688714e-03 3.18849750e-04 3.43501859e-04 5.67430514e-04
      1.10073619e-04 6.37215562e-05 1.66392289e-04 1.17592339e-03
      4.36330633e-03 4.37163748e-04 2.09675185e-04 1.39184209e-04
      2.22578252e-04 3.40678962e-04 4.34904767e-04 6.33763208e-04
      2.02040072e-03 4.36330633e-03 9.90133383e-04 1.00503064e-04
      3.53852694e-04 4.92410385e-04 2.54974526e-04 3.61141050e-04
      2.81017768e-04 1.32955040e-03 4.36330633e-03 9.65316198e-04
      2.99648003e-04 2.77450774e-04 3.44485074e-04 1.81580690e-04
      1.88897029e-04 8.68084724e-04 2.53645680e-03 4.36330633e-03
      2.01695971e-03 3.72217008e-04 7.33764900e-04 5.21935639e-04
      1.53795001e-04 1.41891825e-04 1.75717621e-04 3.70918890e-04
      4.27577831e-03 1.07204879e-03 2.39770889e-05 1.22559926e-04
      2.01935705e-04 1.15796764e-04 6.21400832e-05 3.10228934e-05
      1.12329586e-03 4.27577831e-03 1.92410965e-03 2.11927094e-04
      1.05864092e-04 5.36860753e-05 7.23335470e-05 5.03839183e-05
      2.39275978e-04 4.04937309e-04 4.27577831e-03 2.02006428e-03
      1.35482012e-04 2.89341609e-04 2.19889262e-04 3.27634596e-04
      1.40866134e-04 5.54989965e-05 9.04991874e-04 4.27577831e-03
      3.79445916e-03 3.71472939e-04 7.79247712e-05 1.82406366e-04
      5.35069034e-04 4.03157435e-04 4.21964010e-04 1.55095966e-03
      3.20793269e-03 1.54029240e-03 8.61753360e-04 4.07418120e-04
      3.06541799e-04 1.36096461e-03 6.74876792e-04 9.33149247e-04
      1.05703203e-03 1.03439542e-03 7.57316069e-04 1.17264583e-03
      5.65407856e-04 1.29674375e-03 1.92769303e-03 1.27822801e-03
      3.73423070e-04 1.46891002e-03 3.20793269e-03 3.02245864e-03
      1.28946023e-03 4.15650284e-04 1.14048820e-03 3.20793269e-03
      2.13296851e-03 1.01892091e-03 2.06177193e-03 3.15109408e-03
      1.28613564e-03 1.40196458e-03 1.07486802e-03 2.93639861e-03
      1.29282684e-03 6.61029539e-04 8.11324338e-04 1.06432033e-03
      8.10417172e-04 6.33317220e-04 1.07941043e-03 7.57457397e-04
      1.98674668e-03 8.12289654e-04 8.59522726e-04 7.86192541e-04
      1.04858505e-03 1.11016352e-03 1.02690794e-03 9.89340362e-04
      1.25069288e-03 1.48867280e-03 2.56863353e-03 1.53499562e-03
      9.70645400e-04 1.57740130e-03 2.56863353e-03 1.69979513e-03
      1.68388942e-03 1.74085191e-03 2.56863353e-03 2.56863353e-03
      1.66034431e-03 1.44652370e-03 1.87895610e-03 2.56863353e-03
      2.56863353e-03 1.81556586e-03 2.55629141e-03 2.56863353e-03
      1.24202017e-03 9.39960184e-04 1.00412569e-03 1.16705382e-03
      1.21453463e-03 1.40166620e-03 7.64383818e-04 8.62949353e-04
      1.32376538e-03 1.12016720e-03 7.07962667e-04 1.02565764e-03
      1.22839119e-03 2.04790686e-03 1.02903543e-03 1.26239459e-03
      7.70152954e-04 1.19853148e-03 2.35512736e-03 1.67202519e-03
      2.16983166e-03 2.35512736e-03 2.35512736e-03 2.35512736e-03
      7.88259262e-04 2.32145260e-03 2.35512736e-03 2.35512736e-03
      1.13039045e-03 1.54259417e-03 1.39760645e-03 2.35512736e-03
      2.17319420e-03 1.52564095e-03 2.16927566e-03 2.35512736e-03
      4.45556565e-04 3.33125878e-04 6.72123861e-04 1.95982470e-03
      3.04063596e-03 1.52338331e-03 1.07016682e-03 4.62422962e-04
      4.59016883e-04 1.48617910e-04 2.23864045e-04 3.92264308e-04
      3.04063596e-03 3.04063596e-03 1.99031061e-03 7.09125248e-04
      1.04257466e-04 9.75083967e-05 2.06971914e-03 6.65611355e-04
      9.99041134e-04 1.52799825e-03 3.04063596e-03 1.92009029e-03
      2.06044246e-03 9.46754939e-04 1.40622142e-03 8.20102694e-04
      4.89390630e-04 7.94621650e-04 3.04063596e-03 3.04063596e-03
      2.68715504e-03 1.72079413e-03 3.98265081e-04 5.20015892e-04
      2.31013164e-05 2.21554474e-05 7.56374866e-05 1.28014921e-03
      4.32952540e-03 6.07828086e-04 8.91435484e-05 1.29437385e-05
      1.35696746e-05 1.68590021e-04 1.49123312e-04 2.97286664e-04
      1.56875607e-03 4.32952540e-03 4.03371523e-04 9.63810453e-05
      1.24829719e-04 1.93976288e-04 2.73269485e-04 8.39344430e-05
      2.10207043e-04 2.51384755e-03 4.32952540e-03 5.74877311e-04
      1.53023429e-04 3.48967515e-05 1.32905872e-04 2.90215452e-04
      2.65941664e-04 3.43254738e-04 3.53056821e-03 4.32952540e-03
      3.61220154e-04 1.17361669e-04 1.10196415e-04 1.66229031e-04
      1.27141699e-04 3.17958067e-04 2.18009023e-04 7.94286665e-04
      3.69198294e-03 9.22817795e-04 1.20686607e-04 8.81882661e-05
      8.18093322e-05 2.55236228e-04 1.68469662e-04 5.95111633e-04
      1.36593822e-03 3.69198294e-03 1.79583323e-03 4.38780349e-04
      4.50975116e-04 5.39248984e-04 3.61890823e-04 9.35904245e-05
      1.56571114e-04 6.27908681e-04 3.69198294e-03 1.16109289e-03
      5.62480185e-04 3.61999060e-04 8.47366173e-04 3.69198294e-03
      2.36053616e-04 2.68836739e-04 6.72313152e-04 3.69198294e-03
      1.82473520e-03 1.47069036e-03 8.94723751e-04 3.69198294e-03
      2.39911809e-04 6.99341181e-05 1.75118650e-04 2.32489314e-04
      3.30175855e-03 1.85074192e-03 3.84052051e-04 2.51755904e-04
      5.76808758e-04 1.42754451e-03 6.56197299e-05 2.68080839e-05
      4.43697645e-04 3.30175855e-03 2.48024263e-03 1.02625694e-03
      2.75555096e-04 1.91859831e-03 3.30175855e-03 1.20069635e-04
      7.13084737e-05 1.14684452e-04 2.01553665e-03 1.15184765e-03
      7.00693403e-04 2.85662012e-04 3.30175855e-03 3.30175855e-03
      3.31085794e-05 2.41029102e-06 8.56328843e-05 2.78201513e-03
      1.24742661e-03 1.21883047e-03 3.98587435e-04 3.30175855e-03
      2.95497803e-03 5.10178041e-04 1.06400388e-04 3.66108754e-04
      3.39831505e-03 9.36060271e-04 7.45667727e-04 2.77543499e-04
      2.30298168e-03 3.39831505e-03 1.14739942e-03 3.98058182e-04
      7.03170546e-04 9.76646668e-04 4.92988911e-04 3.96678195e-04
      6.29455375e-04 2.97546154e-03 3.39831505e-03 2.06144134e-04
      1.56942351e-05 4.54428919e-05 8.96750775e-04 3.26241920e-04
      5.40154229e-04 2.46976269e-04 3.39831505e-03 3.39831505e-03
      6.04456000e-04 1.02130783e-04 1.22838013e-04 1.04323386e-04
      1.30624889e-04 1.23132893e-04 3.21358530e-04 3.39831505e-03
      3.36179952e-03 1.11906347e-03 3.51088122e-04 5.48673212e-04
      9.42419167e-04 4.58033639e-04 4.97065834e-04 9.82115744e-04
      3.33721261e-03 2.95040896e-03 1.16697035e-03 3.99682787e-04
      6.04001107e-04 1.05529535e-03 7.08565931e-04 4.58380789e-04
      1.30183296e-03 3.36179952e-03 3.36179952e-03 8.20267946e-04
      9.58281162e-05 1.43371901e-04 1.08489869e-04 5.09553574e-05
      1.38517251e-04 5.44752576e-04 3.36179952e-03 3.36179952e-03
      8.40911700e-04 5.73657890e-05 1.16324809e-04 1.99728165e-04
      9.96090021e-05 1.04365805e-04 8.95168167e-04 3.36179952e-03
      2.43413937e-03 6.84024999e-04 4.02941339e-04 5.40928566e-04
      6.78996963e-04 5.70826582e-04 1.19363460e-04 1.01565104e-03
      3.37887486e-03 3.39819351e-03 3.58929217e-04 2.79455882e-04
      2.28243880e-04 5.43440518e-04 3.51608876e-04 2.00163995e-04
      7.91306025e-04 3.62898433e-03 3.62898433e-03 4.27218038e-04
      6.61065787e-05 6.54425821e-05 9.29219459e-05 6.95030540e-05
      4.10708490e-05 6.46032451e-04 3.62898433e-03 3.62898433e-03
      2.22558476e-04 7.79150723e-05 5.11114195e-05 6.85576306e-05
      1.59124575e-05 4.24499958e-05 3.34425742e-04 3.62898433e-03
      3.02330521e-03 4.82499716e-04 3.26649635e-04 3.78500263e-04
      9.46183107e-04 4.59206669e-04 4.40556993e-04 3.07502865e-04
      3.03231389e-03 2.77673756e-03 4.40284901e-04 2.97782826e-04
      8.64032132e-04 1.60003349e-03 7.91758299e-04 5.94345678e-04
      4.10778972e-04 3.24239791e-03 3.73359350e-03 3.74848314e-04
      1.21451718e-04 9.32105977e-05 1.00427940e-04 8.75234982e-05
      1.25771941e-04 1.46545019e-04 3.73359350e-03 3.73359350e-03
      3.84682382e-04 1.28500717e-04 1.76351401e-04 2.13780775e-04
      2.03695410e-04 2.58862594e-04 3.53530573e-04 3.73359350e-03
      2.35530548e-03 6.52640825e-04 3.28228314e-04 1.91112398e-03
      3.26028373e-03 2.72659992e-04 1.40620206e-04 1.31429260e-04
      2.04622163e-03 1.05369173e-03 7.72638770e-04 3.79307428e-04
      2.93226121e-03 3.26028373e-03 3.04038171e-04 8.39642453e-05
      4.60095507e-05 5.04127936e-04 3.26028373e-03 9.09567752e-04
      3.05920141e-04 9.03603388e-04 9.40672006e-04 8.49979551e-05
      7.45146826e-05 1.12819762e-04 3.26028373e-03 3.26028373e-03
      1.08419510e-03 4.69215855e-04 1.69164897e-03 2.02072063e-03
      2.60590343e-04 6.48261121e-05 8.35305764e-06 3.26028373e-03
      7.59176968e-04 1.53908157e-04 2.85835093e-04 9.62491205e-04
      3.74261476e-03 1.21581729e-03 8.68174480e-04 7.09676766e-04
      1.97399291e-03 3.74261476e-03 3.65687767e-04 4.47784550e-04
      4.83578769e-04 3.74261476e-03 1.53488200e-03 2.05492065e-03
      1.40814320e-03 3.74261476e-03 1.40793229e-04 2.38775654e-04
      4.13930597e-04 1.00785668e-03 1.71571970e-03 4.56396258e-04
      2.12691346e-04 2.27604018e-04 3.47071094e-04 1.00288086e-03
      5.92021504e-04 1.68879435e-03 2.59134639e-03 2.79182498e-03
      9.32175433e-04 3.49925802e-04 3.56899458e-04 1.32577692e-03
      3.95069085e-03 1.94137072e-04 2.55081221e-04 8.40643406e-05
      6.94260001e-04 4.25599486e-04 5.94575133e-04 3.08867369e-04
      3.95069085e-03 3.95069085e-03 1.69095569e-04 9.04405097e-05
      1.65340643e-05 3.61251557e-04 2.88428360e-04 5.06335578e-04
      2.94835743e-04 3.95069085e-03 8.22433445e-04 2.37487038e-04
      1.11729954e-03 1.26976310e-03 2.11394136e-03 8.63661524e-04
      4.70329076e-04 1.60157040e-04 8.23063019e-04 2.88784434e-03
      8.22352187e-04 1.13934220e-03 9.50360729e-04 3.41570703e-03
      1.07009755e-03 4.84538381e-04 2.43538772e-04 1.14093034e-03
      3.59804719e-03 8.37067782e-05 1.92599455e-05 2.65971903e-06
      7.40224277e-05 2.65456110e-05 8.44098686e-05 9.25326895e-05
      3.59804719e-03 3.59804719e-03 3.34687211e-05 2.93791118e-06 0.
      3.09747375e-05 8.18024182e-06 8.16130978e-06 1.71859338e-05
      3.59804719e-03 3.59804719e-03 7.12714042e-04 6.64163381e-04
      5.76510094e-04 1.67581986e-03 4.98678768e-04 6.05234636e-05
      8.18343469e-05 2.10059783e-03 3.59804719e-03 2.82526598e-04
      1.27668958e-04 1.37365569e-04 2.95877573e-04 1.00875513e-04
      3.99506935e-05 1.07064705e-04 3.59804719e-03 3.52770765e-03
      6.41707666e-05 2.46555214e-06 0. 1.67473936e-05 8.77999582e-07
      1.24907410e-05 4.09147833e-05 3.52770765e-03 3.52770765e-03
      6.55857439e-05 7.40471569e-06 0. 1.30257513e-05 0. 1.14026616e-05
      1.28914879e-04 3.52770765e-03 3.52770765e-03 9.80167461e-05
      4.16762814e-05 1.46331522e-05 7.61245201e-06 1.86489706e-05
      3.31266565e-05 6.82571554e-05 3.52770765e-03 3.52770765e-03
      1.35156588e-04 1.03082566e-04 2.91235538e-05 1.91630825e-05
      3.54695294e-05 5.58459469e-05 1.00299651e-04 3.52770765e-03
      3.52631696e-03 3.00369757e-05 9.86159284e-06 0. 0. 0.
      1.21175617e-06 7.16675568e-05 3.52631696e-03 3.52631696e-03
      4.58424875e-05 1.22389465e-05 0. 0. 1.06068655e-05 5.18551042e-06
      3.84561281e-05 3.52631696e-03 3.52631696e-03 1.12685564e-04
      7.24167985e-05 4.47994971e-05 4.10222092e-05 5.15620377e-05
      1.01174934e-04 1.56449998e-04 3.52631696e-03 3.52631696e-03
      1.08105160e-04 1.02404127e-04 9.16903446e-05 8.68584029e-05
      6.72595779e-05 1.79315699e-04 1.56797178e-04 3.52631696e-03
      3.49287339e-03 5.17366861e-05 1.88661761e-05 0. 0. 1.37136158e-05
      6.70434611e-06 2.80857894e-05 3.49287339e-03 3.49287339e-03
      5.28543060e-05 1.34541569e-05 0. 0. 4.67171549e-06 2.28391968e-06
      3.29223913e-05 3.49287339e-03 3.49287339e-03 9.87566891e-05
      1.35373775e-04 1.88035876e-04 2.55789782e-04 2.67627242e-04
      7.95762113e-04 2.00947703e-04 3.49287339e-03 3.49287339e-03
      3.56169243e-04 2.22790346e-04 4.30538756e-04 2.71594734e-04
      3.41278908e-04 7.69512437e-04 1.52407752e-04 3.49287339e-03
      3.39356530e-03 2.69202748e-04 5.43176102e-05 8.96355486e-05
      4.73278633e-05 1.32687037e-05 8.56900260e-06 1.85598637e-05
      3.39356530e-03 3.39356530e-03 4.12693218e-04 1.47959465e-04
      2.85774324e-04 2.37536267e-04 6.42156374e-05 5.32516315e-05
      6.85360574e-05 3.39356530e-03 3.39356530e-03 3.23246612e-04
      9.34164345e-05 1.34666028e-04 9.68164750e-05 4.83438140e-04
      4.14562848e-04 4.31415101e-04 3.39356530e-03 3.39356530e-03
      1.03307495e-04 1.77601814e-05 7.64523866e-05 3.26614128e-04
      1.77211524e-03 1.43795134e-03 1.01900555e-03 3.39356530e-03
      1.46935214e-04 2.23899900e-04 4.74615779e-04 1.32148457e-03
      2.40308023e-03 6.64497376e-04 2.32473147e-04 2.26234421e-04
      1.78821938e-04 2.75627477e-04 4.38396964e-04 1.32591696e-03
      3.50061129e-03 4.09535086e-03 3.45840771e-03 3.93781898e-04
      4.45726822e-04 4.05595289e-04 9.99189069e-05 1.26969418e-04
      3.64172301e-04 1.70002272e-03 2.82286922e-03 8.83172615e-04
      1.35573020e-04 1.39095762e-04 6.75655610e-05 1.18521908e-04
      9.41003309e-05 3.38914833e-04 1.40304177e-03 4.09535086e-03
      4.09535086e-03 3.42439453e-04 2.11074614e-04 1.05949875e-04
      7.22196855e-05 8.08148761e-05 5.13702864e-04 1.25604239e-03
      3.79707851e-03 1.94987643e-03 2.48479337e-04 1.13575254e-04
      1.09846173e-04 1.16294506e-03 4.80983232e-04 8.27580865e-04
      1.07145787e-03 3.79707851e-03 2.87551153e-03 3.10948177e-04
      1.68654951e-04 2.41433649e-04 8.60609543e-06 1.97831378e-05
      3.82608232e-05 3.97456635e-04 3.79707851e-03 3.07151256e-03
      1.28682630e-04 7.15780116e-05 3.35097939e-05 2.32987313e-05
      7.58495007e-05 1.25995139e-04 4.65637189e-04 3.79707851e-03
      3.79707851e-03 2.25049109e-04 1.16034236e-04 3.06463044e-05
      3.45497928e-03 6.69799512e-04 7.59988325e-04 9.87160252e-04
      3.45497928e-03 1.99061981e-03 5.99209561e-05 8.36782565e-05
      1.31178368e-03 3.45497928e-03 5.71251381e-04 2.97430553e-04
      4.11402289e-04 1.44112634e-03 4.57334449e-04 9.17959551e-05
      2.44656054e-04 3.45497928e-03 2.95454665e-04 1.74628396e-04
      2.26135773e-04 6.55235024e-04 3.45497928e-03 3.45497928e-03
      6.70459340e-05 4.37754097e-05 7.21848264e-05 1.08935439e-03
      4.26696177e-04 3.88601766e-04 6.43842970e-04 3.45497928e-03
      1.57595519e-03 2.67212745e-04 2.57626933e-04 5.45948569e-04
      4.09616344e-03 7.30099855e-04 4.05113504e-04 1.79396855e-04
      9.48685120e-05 1.57339018e-04 2.94592173e-04 4.32686124e-04
      4.09616344e-03 4.09616344e-03 7.88561301e-04 6.11935044e-04
      3.52962728e-04 2.88707495e-04 4.97653498e-04 6.60687627e-04
      5.27597149e-04 4.09616344e-03 1.82463450e-03 9.14382050e-04
      8.62955232e-04 7.95622414e-04 8.63506866e-04 8.14687170e-04
      8.49871140e-04 8.57811130e-04 1.30916748e-03 1.99873233e-03
      1.21874176e-03 1.30711938e-03 1.65424973e-03 1.31625205e-03
      1.21894735e-03 1.18083891e-03 9.86897969e-04 1.90687820e-03
      3.68266460e-03 5.41113375e-04 4.28941217e-04 3.47391033e-04
      5.47043688e-04 8.51325865e-04 9.08362563e-04 5.92589320e-04
      3.68266460e-03 3.68266460e-03 4.17887000e-04 6.72138121e-04
      7.55326473e-04 7.62549113e-04 8.19493085e-04 9.55315598e-04
      6.91432040e-04 3.68266460e-03 1.46168040e-03 8.61708948e-04
      8.96441285e-04 1.43936207e-03 1.66849350e-03 1.92913355e-03
      1.31603715e-03 8.68701609e-04 1.65340572e-03 1.10944593e-03
      5.15514519e-04 6.88535103e-04 1.70663605e-03 2.37882440e-03
      2.40297220e-03 1.24361389e-03 1.28718314e-03 1.32118911e-03
      2.63279583e-03 2.27928831e-04 3.60674050e-04 5.74658567e-04
      1.30861416e-03 1.62950892e-03 1.97666464e-03 6.74565730e-04
      2.63279583e-03 2.63279583e-03 1.01447047e-03 5.37311716e-04
      1.08223734e-03 2.13595177e-03 2.36873631e-03 2.09981226e-03
      5.89423231e-04 2.63279583e-03 3.85545020e-04 2.04959593e-04
      3.16406164e-04 1.14393514e-03 2.56299088e-03 2.55265413e-03
      1.83125993e-03 9.75660398e-04 4.96654189e-04 4.32843925e-04
      5.43295289e-04 3.09869822e-04 1.88225997e-03 2.63279583e-03
      2.63279583e-03 2.43683509e-03 1.42697105e-03 3.92091024e-04
      3.15182516e-03 7.19169155e-04 2.39649278e-04 3.76941054e-04
      7.42857170e-04 1.91147043e-03 7.96518521e-04 8.06929776e-04
      3.15182516e-03 1.92887103e-03 1.56434777e-04 1.29808977e-04
      2.26975360e-04 1.15481997e-03 3.15182516e-03 2.73692701e-03
      1.27131504e-03 2.44397018e-03 5.19890513e-04 4.65786463e-04
      1.84485965e-04 9.28811147e-04 2.50411686e-03 2.86393100e-03
      7.97409040e-04 8.54167854e-04 3.95712850e-04 3.00181971e-04
      2.12496612e-04 2.63263006e-04 4.25726554e-04 3.15182516e-03
      3.15182516e-03 2.31546583e-03 6.43937441e-04 1.99124232e-04
      7.83690703e-05 6.36243058e-05 2.42232083e-04 1.11568149e-03
      2.02671089e-03 1.09930860e-03 1.89376937e-04 6.85115083e-05
      8.00585913e-05 1.45498212e-04 9.43810228e-05 2.90922704e-04
      1.02385040e-03 4.71193157e-03 3.89602245e-03 1.89401093e-04
      3.24731773e-05 1.25967577e-04 2.93896679e-04 1.42065823e-04
      3.53999989e-04 9.12892981e-04 2.20245845e-03 1.25683146e-03
      4.32547997e-04 6.77209973e-05 1.95641027e-04 6.01704174e-04
      3.54433985e-04 4.00188146e-04 1.13329547e-03 4.71193157e-03
      4.71193157e-03 2.07895369e-04 6.71009984e-05 3.81492748e-04
      1.97235422e-05 3.38861610e-05 1.60548061e-05 2.63784779e-04
      3.64958961e-03 2.55733402e-03 9.13633194e-05 9.77712534e-06
      1.22362871e-05 3.58459056e-06 2.18872101e-05 2.22589570e-05
      4.54018591e-04 3.64958961e-03 3.64958961e-03 1.95103363e-04
      2.45799074e-05 3.36371295e-06 8.51442674e-05 1.00740603e-04
      3.83340157e-05 3.24803550e-04 3.64958961e-03 3.48274759e-03
      8.15968742e-05 6.36806362e-06 3.01279542e-05 1.55332255e-05
      3.72483773e-05 3.38139716e-06 7.16206734e-04 3.64958961e-03
      3.64958961e-03 2.67181022e-04 5.33637649e-05 4.78940165e-05
      1.53894725e-05 3.08430972e-05 4.98619411e-05 8.89456423e-04
      3.74667882e-03 3.51353805e-03 1.32817775e-04 1.85532408e-05
      9.35650678e-06 2.14808068e-04 1.47302810e-04 1.80993782e-04
      7.90118938e-04 3.74667882e-03 1.92762120e-03 4.21572564e-04
      2.38180248e-04 3.83414619e-04 2.27295328e-04 1.13642800e-05
      6.98929171e-06 1.47975120e-03 3.74667882e-03 3.48333898e-03
      5.08890545e-04 3.06260335e-04 4.42813965e-04 1.20779884e-03
      1.91793486e-04 1.79804483e-04 9.71162459e-04 3.74667882e-03
      1.91958563e-03 7.04638427e-04 9.06171335e-04 1.76006963e-03
      5.56826591e-04 4.01783909e-04 5.52667538e-04 9.04239248e-04
      1.49897998e-03 1.10303704e-03 7.47978222e-04 8.00263195e-04
      1.03557506e-03 1.05796708e-03 1.04016380e-03 1.42662192e-03
      2.21461058e-03 2.53682700e-03 1.71853171e-03 5.85348287e-04
      8.49255419e-04 1.44545408e-03 2.53682700e-03 1.14432652e-03
      1.75746263e-03 1.77484308e-03 1.73930335e-03 1.02489546e-03
      5.18716290e-04 1.01684185e-03 2.53682700e-03 2.53682700e-03
      2.09809560e-03 2.53682700e-03 2.53682700e-03 2.53682700e-03
      2.08292971e-03 8.60479835e-04 1.81013974e-03 2.53682700e-03
      7.49746803e-04 6.83064456e-04 1.09071890e-03 1.84116617e-03
      2.43297336e-03 1.61120668e-03 5.22073184e-04 9.46708373e-04
      1.01506594e-03 4.99745249e-04 2.07951030e-04 4.95977933e-04
      1.45125436e-03 2.43297336e-03 2.27447599e-03 6.55690441e-04
      1.20035885e-03 6.43666775e-04 2.18937406e-03 9.27911606e-04
      2.05947692e-03 2.43297336e-03 2.43297336e-03 2.05354649e-03
      1.41653593e-03 2.38162256e-03 2.43297336e-03 2.43297336e-03
      6.31317555e-04 1.38127862e-03 1.68874161e-03 2.43297336e-03
      1.64812384e-03 8.16501968e-04 1.24987657e-03 2.43297336e-03
      3.13752156e-04 7.79264301e-05 1.84589866e-04 9.50030691e-04
      2.79326434e-03 2.24387553e-03 1.23425049e-03 8.69840384e-04
      3.54512333e-04 1.22417070e-04 8.87330898e-05 1.57259608e-04
      1.76436093e-03 2.79326434e-03 2.79326434e-03 2.64544180e-03
      1.53608655e-03 4.07908927e-04 2.56112148e-03 3.87485779e-04
      4.58044145e-04 7.34658155e-04 2.79326434e-03 1.70842302e-03
      4.89711296e-04 4.01788100e-04 2.05181027e-03 1.95637043e-03
      2.94058962e-04 6.20386447e-04 1.20281475e-03 2.79326434e-03
      2.79326434e-03 2.37820856e-03 1.17387564e-03 1.99298467e-03
      1.48308944e-04 1.07380685e-04 1.18799268e-04 1.01593917e-03
      2.46737665e-03 2.72733043e-03 1.16639386e-03 7.33576424e-04
      3.02067638e-04 1.55192218e-04 9.03439359e-05 1.83976328e-04
      4.76666435e-04 3.36722191e-03 3.36722191e-03 1.13487081e-03
      2.60819768e-04 1.21776524e-04 1.45616336e-03 2.46117677e-04
      4.07177722e-04 9.40422353e-04 2.51648109e-03 3.36722191e-03
      1.59358990e-03 9.51842638e-04 1.76214636e-03 2.18995567e-03
      3.15718004e-04 5.80162858e-04 1.02891889e-03 3.36722191e-03
      3.36722191e-03 7.27245293e-04 2.88055948e-04 1.30208035e-03
      2.88777170e-04 1.75302557e-04 4.35085851e-04 9.68263019e-04
      1.99579308e-03 9.42017708e-04 5.23710391e-04 1.06483072e-04
      2.51149962e-04 5.38748340e-04 3.74286406e-04 4.01336176e-04
      1.30794523e-03 4.53110225e-03 4.38675657e-03 2.98952655e-04
      1.36633462e-04 3.40338011e-04 4.18141979e-04 2.07355100e-04
      2.83966743e-04 8.50759097e-04 2.32181605e-03 8.56067170e-04
      8.20553279e-04 4.07824526e-04 5.58424392e-04 1.05963659e-03
      3.51072405e-04 3.15429264e-04 2.58620735e-03 4.53110225e-03
      3.19072418e-03 1.08475657e-03 5.55262552e-04 1.50285056e-03
      9.85693550e-05 5.02411931e-05 3.53095238e-05 3.29778093e-04
      3.23729496e-03 2.90968874e-03 1.59299045e-04 1.40081684e-04
      1.25252220e-04 5.11197606e-04 5.73955513e-05 1.45048182e-06
      3.82212107e-04 3.23729496e-03 3.23729496e-03 6.97216776e-04
      3.80364363e-04 9.42411076e-04 1.26456039e-03 3.37974852e-05
      4.00116660e-05 1.04839879e-03 3.23729496e-03 1.93584745e-03
      6.88379630e-04 6.09984039e-04 1.81152776e-03 3.23729496e-03
      1.39057942e-04 1.86250600e-05 5.64865244e-04 3.23729496e-03
      1.74658000e-03 9.66966094e-04 9.14734846e-04 3.23729496e-03
      1.52095826e-03 4.23122619e-05 0. 3.64071253e-04 3.37595167e-03
      2.10029352e-03 9.02437663e-04 4.76024929e-04 2.20836885e-03
      3.37595167e-03 1.28914282e-04 1.23944803e-04 2.20295653e-04
      1.86914264e-03 8.60900676e-04 6.23402244e-04 7.19048257e-04
      3.37595167e-03 3.37595167e-03 1.15741605e-04 0. 8.61414883e-05
      9.27841815e-04 5.81358734e-04 5.83137851e-04 3.30178707e-04
      3.37595167e-03 3.37595167e-03 1.01138670e-04 3.38980171e-05
      1.96206329e-05 2.57416832e-04 1.75814828e-04 2.71441764e-04
      1.84918405e-04 3.37595167e-03 3.28452815e-03 8.71422060e-04
      9.77954245e-04 7.32834509e-04 3.89217428e-04 1.19092707e-04
      7.40955802e-05 2.95052130e-04 3.28452815e-03 3.28452815e-03
      1.05711992e-03 1.65628048e-03 1.90429226e-03 1.30997854e-03
      4.60167590e-04 3.40251776e-04 7.53607892e-04 3.28452815e-03
      3.28452815e-03 3.89149645e-04 2.34220701e-04 1.25186692e-04
      6.87052452e-05 1.66128234e-06 5.64276161e-06 4.66443707e-05
      3.28452815e-03 3.28452815e-03 3.98575445e-04 3.54514836e-04
      3.77087417e-04 2.39829984e-04 8.49979115e-05 5.59337313e-05
      1.83496712e-04 3.28452815e-03 3.38660507e-03 2.77216313e-04
      7.32604880e-04 1.06418843e-03 1.05622609e-03 7.46641890e-04
      7.70009763e-04 1.25616114e-03 3.39708012e-03 3.39708012e-03
      2.51101184e-04 3.56197939e-04 3.59236903e-04 7.75998225e-04
      3.53286683e-04 3.74284486e-04 6.07119640e-04 3.39708012e-03
      3.39708012e-03 5.07244331e-05 1.06499239e-04 1.68265236e-04
      1.71111882e-04 1.72490036e-04 1.48375533e-04 3.07940936e-04
      3.39708012e-03 3.39708012e-03 1.45482554e-05 4.05365154e-06
      1.93838114e-05 8.23744558e-05 7.08060325e-05 8.47994816e-05
      1.67557300e-04 3.39708012e-03 3.35456035e-03 2.14069689e-04
      2.60216999e-04 1.73012610e-04 7.53740722e-04 2.95389822e-04
      5.27873781e-05 8.35990286e-05 3.35456035e-03 3.35456035e-03
      3.63403087e-04 7.07339437e-04 3.04455229e-04 2.07607378e-03
      1.68168440e-03 6.88109838e-04 4.93997417e-04 3.35456035e-03
      3.35456035e-03 4.01245925e-05 6.68462962e-05 1.26553259e-05
      6.18278282e-05 1.47559485e-05 5.94341202e-07 9.98384076e-06
      3.35456035e-03 3.35456035e-03 1.57621616e-04 2.95172678e-04
      2.64617629e-05 2.63302180e-04 7.88842954e-05 1.81890297e-04
      1.38382384e-04 3.35456035e-03 3.25209415e-03 2.85295275e-04
      4.12224297e-04 2.75241502e-04 1.29307027e-03 1.21362356e-03
      7.96504086e-04 5.85934555e-04 3.25209415e-03 3.25209415e-03
      3.90985631e-04 7.45711674e-04 6.01999462e-04 2.42470670e-03
      1.76851416e-03 3.09501513e-04 1.96908892e-04 3.25209415e-03
      3.25209415e-03 1.28027707e-04 1.39944939e-04 1.76833782e-05
      1.94380002e-04 4.84783159e-05 2.12758096e-04 2.06278652e-04
      3.25209415e-03 3.25209415e-03 1.74956978e-04 2.71149067e-04
      9.26790090e-05 2.55733350e-04 9.64706414e-05 5.37886408e-05
      2.21511233e-04 3.25209415e-03 7.91940372e-04 3.46961955e-04
      4.53669491e-04 6.72088994e-04 3.27388383e-03 5.48229204e-04
      2.20335598e-04 2.23866620e-04 6.67747052e-04 3.68461083e-03
      7.53464235e-04 1.18264405e-03 1.68445439e-03 3.98245547e-03
      4.18223441e-04 1.50759151e-04 2.30251288e-04 2.74282135e-03
      2.19000707e-04 3.70424095e-04 3.62444407e-04 7.45258934e-04
      3.98245547e-03 1.31624448e-03 1.04114173e-04 1.46318402e-04
      1.21369521e-04 6.81198610e-04 3.29444360e-04 5.74919744e-04
      2.73729675e-03 3.98245547e-03 1.25395809e-03 3.26631824e-04
      2.55785475e-04 3.28855589e-04 3.52003099e-03 9.04305140e-04
      9.33755771e-04 1.01661624e-03 2.22084206e-03 1.09574183e-04
      1.91471467e-04 2.96711427e-04 3.52003099e-03 3.52003099e-03
      5.64229384e-04 3.73339310e-04 1.43307043e-04 6.60589722e-05
      1.30133529e-04 3.08051938e-04 2.59529799e-04 3.52003099e-03
      1.66117074e-03 7.09682470e-04 1.05738628e-03 2.29931786e-03
      3.52003099e-03 4.75648150e-04 7.50093022e-04 5.45992574e-04
      1.16094272e-03 2.38030846e-03 8.06778378e-04 1.25547929e-03
      8.80974752e-04 8.20557354e-04 5.41494461e-04 1.11913669e-03
      5.98675164e-04 2.42734817e-03 3.88466893e-03 4.10442357e-04
      2.06419660e-04 2.71553523e-04 7.46356964e-05 9.45205029e-05
      3.05900787e-04 3.50864691e-04 3.88466893e-03 3.88466893e-03
      5.69499331e-04 2.50451150e-04 2.48076132e-04 1.83714757e-04
      5.08521698e-05 2.71127443e-04 4.64968121e-04 3.88466893e-03
      2.42506526e-03 7.09086831e-04 8.59231804e-04 1.04441133e-03
      6.21013693e-04 5.09172736e-04 1.12391857e-03 7.48646620e-04
      2.36879149e-03 2.99963378e-03 9.62977763e-04 8.77394399e-04
      8.74073943e-04 9.94148548e-04 6.39386708e-04 9.41816659e-04
      7.63892429e-04 2.70914007e-03 3.85517487e-03 4.36640461e-04
      1.80714356e-04 1.08598397e-04 2.44745868e-04 8.19364359e-05
      1.87507219e-04 2.81827495e-04 3.85517487e-03 3.85517487e-03
      2.87824107e-04 1.73455119e-04 7.09193919e-05 4.70021914e-04
      2.15130043e-04 2.49463134e-04 4.11250803e-04 3.85517487e-03
      2.60317838e-03 7.82920572e-04 5.61315799e-04 4.28600761e-04
      9.14236996e-04 5.59241860e-04 6.07779308e-04 3.70503491e-04
      2.64808978e-03 2.84523400e-03 5.51969046e-04 5.23611845e-04
      5.61231282e-04 1.56225276e-03 6.67263055e-04 7.94529042e-04
      6.75089948e-04 3.10073653e-03 3.32811987e-03 2.98235624e-04
      2.36306543e-04 4.97878122e-04 1.27809239e-03 2.55125749e-04
      2.05841716e-04 5.87517221e-04 3.32811987e-03 3.32811987e-03
      9.62761813e-04 4.23466961e-04 1.11458427e-03 2.08598981e-03
      3.90937959e-04 1.66440703e-04 5.89641684e-04 3.32811987e-03
      1.33002491e-03 2.12653336e-04 2.93527555e-04 1.48662040e-03
      3.32811987e-03 1.03694806e-03 5.15989377e-04 5.25359821e-04
      1.76767702e-03 1.51529268e-03 4.66067228e-04 2.34184990e-04
      2.73958780e-03 3.32811987e-03 1.55415770e-03 3.01636348e-04
      3.05825291e-04 1.40579254e-03 3.62388790e-03 3.08113522e-04
      1.02962666e-04 3.39237711e-04 3.10818409e-03 9.53812385e-04
      5.59385750e-04 6.19944942e-04 3.62388790e-03 1.55542325e-03
      6.29751157e-05 5.28233031e-05 2.39367539e-04 3.62388790e-03
      1.45434064e-03 1.02973543e-03 8.37568776e-04 2.95547745e-03
      9.52603121e-04 1.67161343e-04 8.08153854e-05 1.05561560e-03
      3.62388790e-03 1.09196012e-03 2.75901897e-04 2.39647168e-04
      1.03122159e-03 2.94745085e-04 1.31503068e-04 2.71996978e-04
      1.09179865e-03 3.62388790e-03 1.01688714e-03 3.18849750e-04
      3.43501859e-04 5.67430514e-04 1.05514762e-03 1.24388753e-04
      9.24704946e-05 1.93449465e-04 3.13048717e-03 2.66233599e-03
      1.35112077e-03 8.15507083e-04 1.53538724e-03 3.63567058e-04
      2.36622276e-04 4.38181974e-04 3.89091845e-04 3.13048717e-03
      3.13048717e-03 2.88786879e-03 8.26373755e-04 6.69975125e-04
      4.42189339e-04 1.95505345e-04 3.81425372e-04 8.64293776e-04
      3.13048717e-03 2.53868243e-03 6.74869865e-04 4.65237303e-04
      5.38079825e-04 2.56587198e-04 2.88422249e-04 6.40117330e-04
      1.48253411e-03 3.13048717e-03 3.13048717e-03 2.41875625e-03
      7.13592861e-04 3.53162555e-04 1.53795001e-04 1.41891825e-04
      1.75717621e-04 3.70918890e-04 4.27577831e-03 1.07204879e-03
      2.39770889e-05 1.22559926e-04 2.01935705e-04 1.15796764e-04
      6.21400832e-05 3.10228934e-05 1.12329586e-03 4.27577831e-03
      1.92410965e-03 2.11927094e-04 1.05864092e-04 5.36860753e-05
      7.23335470e-05 5.03839183e-05 2.39275978e-04 4.04937309e-04
      4.27577831e-03 2.02006428e-03 1.35482012e-04 2.89341609e-04
      2.19889262e-04 3.27634596e-04 1.40866134e-04 5.54989965e-05
      9.04991874e-04 4.27577831e-03 3.79445916e-03 3.71472939e-04
      7.79247712e-05 1.82406366e-04 5.35069034e-04 4.03157435e-04
      4.21964010e-04 1.55095966e-03 3.20793269e-03 1.54029240e-03
      8.61753360e-04 4.07418120e-04 3.06541799e-04 1.36096461e-03
      6.74876792e-04 9.33149247e-04 1.05703203e-03 1.03439542e-03
      7.57316069e-04 1.17264583e-03 5.65407856e-04 1.29674375e-03
      1.92769303e-03 1.27822801e-03 3.73423070e-04 1.46891002e-03
      3.20793269e-03 3.02245864e-03 1.28946023e-03 4.15650284e-04
      1.14048820e-03 3.20793269e-03 2.13296851e-03 1.01892091e-03
      2.06177193e-03 3.15109408e-03 1.28613564e-03 1.40196458e-03
      1.07486802e-03 2.93639861e-03 1.29282684e-03 6.61029539e-04
      8.11324338e-04 1.06432033e-03 8.10417172e-04 6.33317220e-04
      1.07941043e-03 7.57457397e-04 1.98674668e-03 8.12289654e-04
      8.59522726e-04 7.86192541e-04 1.04858505e-03 1.11016352e-03
      1.02690794e-03 9.89340362e-04 1.25069288e-03 1.48867280e-03
      2.56863353e-03 1.53499562e-03 9.70645400e-04 1.57740130e-03
      2.56863353e-03 1.69979513e-03 1.68388942e-03 1.74085191e-03
      2.56863353e-03 2.56863353e-03 1.66034431e-03 1.44652370e-03
      1.87895610e-03 2.56863353e-03 2.56863353e-03 1.81556586e-03
      2.55629141e-03 2.56863353e-03 1.24202017e-03 9.39960184e-04
      1.00412569e-03 1.16705382e-03 1.21453463e-03 1.40166620e-03
      7.64383818e-04 8.62949353e-04 1.32376538e-03 1.12016720e-03
      7.07962667e-04 1.02565764e-03 1.22839119e-03 2.04790686e-03
      1.02903543e-03 1.26239459e-03 7.70152954e-04 1.19853148e-03
      2.35512736e-03 1.67202519e-03 2.16983166e-03 2.35512736e-03
      2.35512736e-03 2.35512736e-03 7.88259262e-04 2.32145260e-03
      2.35512736e-03 2.35512736e-03 1.13039045e-03 1.54259417e-03
      1.39760645e-03 2.35512736e-03 2.17319420e-03 1.52564095e-03
      2.16927566e-03 2.35512736e-03 4.45556565e-04 3.33125878e-04
      6.72123861e-04 1.95982470e-03 3.04063596e-03 1.52338331e-03
      1.07016682e-03 4.62422962e-04 4.59016883e-04 1.48617910e-04
      2.23864045e-04 3.92264308e-04 3.04063596e-03 3.04063596e-03
      1.99031061e-03 7.09125248e-04 1.04257466e-04 9.75083967e-05
      2.06971914e-03 6.65611355e-04 9.99041134e-04 1.52799825e-03
      3.04063596e-03 1.92009029e-03 2.06044246e-03 9.46754939e-04
      1.40622142e-03 8.20102694e-04 4.89390630e-04 7.94621650e-04
      3.04063596e-03 3.04063596e-03 2.68715504e-03 1.72079413e-03
      3.98265081e-04 5.20015892e-04 2.31013164e-05 2.21554474e-05
      7.56374866e-05 1.28014921e-03 4.32952540e-03 6.07828086e-04
      8.91435484e-05 1.29437385e-05 1.35696746e-05 1.68590021e-04
      1.49123312e-04 2.97286664e-04 1.56875607e-03 4.32952540e-03
      4.03371523e-04 9.63810453e-05 1.24829719e-04 1.93976288e-04
      2.73269485e-04 8.39344430e-05 2.10207043e-04 2.51384755e-03
      4.32952540e-03 5.74877311e-04 1.53023429e-04 3.48967515e-05
      1.32905872e-04 2.90215452e-04 2.65941664e-04 3.43254738e-04
      3.53056821e-03 4.32952540e-03 3.61220154e-04 1.17361669e-04
      1.10196415e-04 1.66229031e-04 3.68022273e-04 1.83166048e-04
      3.13828816e-04 9.96876159e-04 3.66205187e-03 1.55940291e-03
      4.50985623e-04 3.61893239e-04 4.62006923e-04 8.41351939e-05
      7.91377970e-05 2.04988231e-04 1.54583668e-03 3.66205187e-03
      3.50367255e-03 1.09377864e-03 4.30779299e-04 1.33462410e-04
      5.20328816e-04 3.17158672e-04 3.86384345e-04 2.22452148e-03
      3.66205187e-03 1.60397473e-03 6.58744655e-04 4.26404615e-04
      4.11576359e-04 8.54592712e-04 3.24638939e-04 5.80649241e-04
      2.38212454e-03 3.66205187e-03 2.91864481e-03 8.72440985e-04
      6.12757460e-04 5.48552314e-04 2.39911809e-04 6.99341181e-05
      1.75118650e-04 2.32489314e-04 3.30175855e-03 1.85074192e-03
      3.84052051e-04 2.51755904e-04 5.76808758e-04 1.42754451e-03
      6.56197299e-05 2.68080839e-05 4.43697645e-04 3.30175855e-03
      2.48024263e-03 1.02625694e-03 2.75555096e-04 1.91859831e-03
      3.30175855e-03 1.20069635e-04 7.13084737e-05 1.14684452e-04
      2.01553665e-03 1.15184765e-03 7.00693403e-04 2.85662012e-04
      3.30175855e-03 3.30175855e-03 3.31085794e-05 2.41029102e-06
      8.56328843e-05 2.78201513e-03 1.24742661e-03 1.21883047e-03
      3.98587435e-04 3.30175855e-03 2.95497803e-03 5.10178041e-04
      1.06400388e-04 3.66108754e-04 3.39831505e-03 9.36060271e-04
      7.45667727e-04 2.77543499e-04 2.30298168e-03 3.39831505e-03
      1.14739942e-03 3.98058182e-04 7.03170546e-04 9.76646668e-04
      4.92988911e-04 3.96678195e-04 6.29455375e-04 2.97546154e-03
      3.39831505e-03 2.06144134e-04 1.56942351e-05 4.54428919e-05
      8.96750775e-04 3.26241920e-04 5.40154229e-04 2.46976269e-04
      3.39831505e-03 3.39831505e-03 6.04456000e-04 1.02130783e-04
      1.22838013e-04 1.04323386e-04 1.30624889e-04 1.23132893e-04
      3.21358530e-04 3.39831505e-03 3.36179952e-03 1.11906347e-03
      3.51088122e-04 5.48673212e-04 9.42419167e-04 4.58033639e-04
      4.97065834e-04 9.82115744e-04 3.33721261e-03 2.95040896e-03
      1.16697035e-03 3.99682787e-04 6.04001107e-04 1.05529535e-03
      7.08565931e-04 4.58380789e-04 1.30183296e-03 3.36179952e-03
      3.36179952e-03 8.20267946e-04 9.58281162e-05 1.43371901e-04
      1.08489869e-04 5.09553574e-05 1.38517251e-04 5.44752576e-04
      3.36179952e-03 3.36179952e-03 8.40911700e-04 5.73657890e-05
      1.16324809e-04 1.99728165e-04 9.96090021e-05 1.04365805e-04
      8.95168167e-04 3.36179952e-03 2.43413937e-03 6.84024999e-04
      4.02941339e-04 5.40928566e-04 6.78996963e-04 5.70826582e-04
      1.19363460e-04 1.01565104e-03 3.37887486e-03 3.39819351e-03
      3.58929217e-04 2.79455882e-04 2.28243880e-04 5.43440518e-04
      3.51608876e-04 2.00163995e-04 7.91306025e-04 3.62898433e-03
      3.62898433e-03 4.27218038e-04 6.61065787e-05 6.54425821e-05
      9.29219459e-05 6.95030540e-05 4.10708490e-05 6.46032451e-04
      3.62898433e-03 3.62898433e-03 2.22558476e-04 7.79150723e-05
      5.11114195e-05 6.85576306e-05 1.59124575e-05 4.24499958e-05
      3.34425742e-04 3.62898433e-03 3.02330521e-03 4.82499716e-04
      3.26649635e-04 3.78500263e-04 9.46183107e-04 4.59206669e-04
      4.40556993e-04 3.07502865e-04 3.03231389e-03 2.77673756e-03
      4.40284901e-04 2.97782826e-04 8.64032132e-04 1.60003349e-03
      7.91758299e-04 5.94345678e-04 4.10778972e-04 3.24239791e-03
      3.73359350e-03 3.74848314e-04 1.21451718e-04 9.32105977e-05
      1.00427940e-04 8.75234982e-05 1.25771941e-04 1.46545019e-04
      3.73359350e-03 3.73359350e-03 3.84682382e-04 1.28500717e-04
      1.76351401e-04 2.13780775e-04 2.03695410e-04 2.58862594e-04
      3.53530573e-04 3.73359350e-03 2.35530548e-03 6.52640825e-04
      3.28228314e-04 1.91112398e-03 3.26028373e-03 2.72659992e-04
      1.40620206e-04 1.31429260e-04 2.04622163e-03 1.05369173e-03
      7.72638770e-04 3.79307428e-04 2.93226121e-03 3.26028373e-03
      3.04038171e-04 8.39642453e-05 4.60095507e-05 5.04127936e-04
      3.26028373e-03 9.09567752e-04 3.05920141e-04 9.03603388e-04
      9.40672006e-04 8.49979551e-05 7.45146826e-05 1.12819762e-04
      3.26028373e-03 3.26028373e-03 1.08419510e-03 4.69215855e-04
      1.69164897e-03 2.02072063e-03 2.60590343e-04 6.48261121e-05
      8.35305764e-06 3.26028373e-03 5.15508233e-04 3.68370384e-04
      2.70904275e-04 2.58661248e-03 2.88419938e-03 9.69367800e-04
      3.30638955e-04 1.48922132e-04 2.53518810e-04 9.94398491e-04
      3.92475165e-04 5.77706378e-04 2.88419938e-03 2.88419938e-03
      1.80453865e-03 4.59363160e-04 3.32589785e-04 5.95549995e-04
      2.88419938e-03 9.59663070e-04 6.23337168e-04 2.87985615e-03
      2.88419938e-03 6.45806431e-04 1.33240872e-04 3.89399720e-05
      2.88419938e-03 1.48755638e-03 6.52727496e-04 6.86782063e-04
      2.88419938e-03 2.88419938e-03 2.30165338e-03 1.87222060e-04
      1.22556492e-04 9.77332122e-04 3.95069085e-03 1.94137072e-04
      2.55081221e-04 8.40643406e-05 6.94260001e-04 4.25599486e-04
      5.94575133e-04 3.08867369e-04 3.95069085e-03 3.95069085e-03
      1.69095569e-04 9.04405097e-05 1.65340643e-05 3.61251557e-04
      2.88428360e-04 5.06335578e-04 2.94835743e-04 3.95069085e-03
      8.22433445e-04 2.37487038e-04 1.11729954e-03 1.26976310e-03
      2.11394136e-03 8.63661524e-04 4.70329076e-04 1.60157040e-04
      8.23063019e-04 2.88784434e-03 8.22352187e-04 1.13934220e-03
      9.50360729e-04 3.41570703e-03 1.07009755e-03 4.84538381e-04
      2.43538772e-04 1.14093034e-03 3.59804719e-03 8.37067782e-05
      1.92599455e-05 2.65971903e-06 7.40224277e-05 2.65456110e-05
      8.44098686e-05 9.25326895e-05 3.59804719e-03 3.59804719e-03
      3.34687211e-05 2.93791118e-06 0. 3.09747375e-05 8.18024182e-06
      8.16130978e-06 1.71859338e-05 3.59804719e-03 3.59804719e-03
      7.12714042e-04 6.64163381e-04 5.76510094e-04 1.67581986e-03
      4.98678768e-04 6.05234636e-05 8.18343469e-05 2.10059783e-03
      3.59804719e-03 2.82526598e-04 1.27668958e-04 1.37365569e-04
      2.95877573e-04 1.00875513e-04 3.99506935e-05 1.07064705e-04
      3.59804719e-03 3.52770765e-03 6.41707666e-05 2.46555214e-06 0.
      1.67473936e-05 8.77999582e-07 1.24907410e-05 4.09147833e-05
      3.52770765e-03 3.52770765e-03 6.55857439e-05 7.40471569e-06 0.
      1.30257513e-05 0. 1.14026616e-05 1.28914879e-04 3.52770765e-03
      3.52770765e-03 9.80167461e-05 4.16762814e-05 1.46331522e-05
      7.61245201e-06 1.86489706e-05 3.31266565e-05 6.82571554e-05
      3.52770765e-03 3.52770765e-03 1.35156588e-04 1.03082566e-04
      2.91235538e-05 1.91630825e-05 3.54695294e-05 5.58459469e-05
      1.00299651e-04 3.52770765e-03 3.52631696e-03 3.00369757e-05
      9.86159284e-06 0. 0. 0. 1.21175617e-06 7.16675568e-05
      3.52631696e-03 3.52631696e-03 4.58424875e-05 1.22389465e-05 0. 0.
      1.06068655e-05 5.18551042e-06 3.84561281e-05 3.52631696e-03
      3.52631696e-03 1.12685564e-04 7.24167985e-05 4.47994971e-05
      4.10222092e-05 5.15620377e-05 1.01174934e-04 1.56449998e-04
      3.52631696e-03 3.52631696e-03 1.08105160e-04 1.02404127e-04
      9.16903446e-05 8.68584029e-05 6.72595779e-05 1.79315699e-04
      1.56797178e-04 3.52631696e-03 3.49287339e-03 5.17366861e-05
      1.88661761e-05 0. 0. 1.37136158e-05 6.70434611e-06 2.80857894e-05
      3.49287339e-03 3.49287339e-03 5.28543060e-05 1.34541569e-05 0. 0.
      4.67171549e-06 2.28391968e-06 3.29223913e-05 3.49287339e-03
      3.49287339e-03 9.87566891e-05 1.35373775e-04 1.88035876e-04
      2.55789782e-04 2.67627242e-04 7.95762113e-04 2.00947703e-04
      3.49287339e-03 3.49287339e-03 3.56169243e-04 2.22790346e-04
      4.30538756e-04 2.71594734e-04 3.41278908e-04 7.69512437e-04
      1.52407752e-04 3.49287339e-03 3.39356530e-03 2.69202748e-04
      5.43176102e-05 8.96355486e-05 4.73278633e-05 1.32687037e-05
      8.56900260e-06 1.85598637e-05 3.39356530e-03 3.39356530e-03
      4.12693218e-04 1.47959465e-04 2.85774324e-04 2.37536267e-04
      6.42156374e-05 5.32516315e-05 6.85360574e-05 3.39356530e-03
      3.39356530e-03 3.23246612e-04 9.34164345e-05 1.34666028e-04
      9.68164750e-05 4.83438140e-04 4.14562848e-04 4.31415101e-04
      3.39356530e-03 3.39356530e-03 1.03307495e-04 1.77601814e-05
      7.64523866e-05 3.26614128e-04 1.77211524e-03 1.43795134e-03
      1.01900555e-03 3.39356530e-03 3.05541605e-03 1.01754745e-03
      6.15879952e-04 1.49657635e-03 1.49040099e-03 2.33389030e-04
      1.53804926e-04 2.24454474e-04 3.05541605e-03 2.12545693e-03
      9.08904767e-04 7.30757019e-04 1.99907948e-03 3.05541605e-03
      3.05541605e-03 1.24060243e-04 1.60424359e-04 1.60646590e-03
      2.13317457e-03 2.40973808e-04 4.38748393e-05 3.35696124e-04
      8.84597423e-04 2.47054733e-03 2.23403866e-03 1.20960188e-03
      2.25212472e-03 3.56365490e-04 5.20712347e-04 2.37974251e-04
      5.61923021e-04 3.05541605e-03 3.05541605e-03 9.59335885e-04
      4.49637068e-04 3.90882982e-04 7.22196855e-05 8.08148761e-05
      5.13702864e-04 1.25604239e-03 3.79707851e-03 1.94987643e-03
      2.48479337e-04 1.13575254e-04 1.09846173e-04 1.16294506e-03
      4.80983232e-04 8.27580865e-04 1.07145787e-03 3.79707851e-03
      2.87551153e-03 3.10948177e-04 1.68654951e-04 2.41433649e-04
      8.60609543e-06 1.97831378e-05 3.82608232e-05 3.97456635e-04
      3.79707851e-03 3.07151256e-03 1.28682630e-04 7.15780116e-05
      3.35097939e-05 2.32987313e-05 7.58495007e-05 1.25995139e-04
      4.65637189e-04 3.79707851e-03 3.79707851e-03 2.25049109e-04
      1.16034236e-04 3.06463044e-05 3.45497928e-03 6.69799512e-04
      7.59988325e-04 9.87160252e-04 3.45497928e-03 1.99061981e-03
      5.99209561e-05 8.36782565e-05 1.31178368e-03 3.45497928e-03
      5.71251381e-04 2.97430553e-04 4.11402289e-04 1.44112634e-03
      4.57334449e-04 9.17959551e-05 2.44656054e-04 3.45497928e-03
      2.95454665e-04 1.74628396e-04 2.26135773e-04 6.55235024e-04
      3.45497928e-03 3.45497928e-03 6.70459340e-05 4.37754097e-05
      7.21848264e-05 1.08935439e-03 4.26696177e-04 3.88601766e-04
      6.43842970e-04 3.45497928e-03 1.57595519e-03 2.67212745e-04
      2.57626933e-04 5.45948569e-04 4.09616344e-03 7.30099855e-04
      4.05113504e-04 1.79396855e-04 9.48685120e-05 1.57339018e-04
      2.94592173e-04 4.32686124e-04 4.09616344e-03 4.09616344e-03
      7.88561301e-04 6.11935044e-04 3.52962728e-04 2.88707495e-04
      4.97653498e-04 6.60687627e-04 5.27597149e-04 4.09616344e-03
      1.82463450e-03 9.14382050e-04 8.62955232e-04 7.95622414e-04
      8.63506866e-04 8.14687170e-04 8.49871140e-04 8.57811130e-04
      1.30916748e-03 1.99873233e-03 1.21874176e-03 1.30711938e-03
      1.65424973e-03 1.31625205e-03 1.21894735e-03 1.18083891e-03
      9.86897969e-04 1.90687820e-03 3.68266460e-03 5.41113375e-04
      4.28941217e-04 3.47391033e-04 5.47043688e-04 8.51325865e-04
      9.08362563e-04 5.92589320e-04 3.68266460e-03 3.68266460e-03
      4.17887000e-04 6.72138121e-04 7.55326473e-04 7.62549113e-04
      8.19493085e-04 9.55315598e-04 6.91432040e-04 3.68266460e-03
      1.46168040e-03 8.61708948e-04 8.96441285e-04 1.43936207e-03
      1.66849350e-03 1.92913355e-03 1.31603715e-03 8.68701609e-04
      1.65340572e-03 1.10944593e-03 5.15514519e-04 6.88535103e-04
      1.70663605e-03 2.37882440e-03 2.40297220e-03 1.24361389e-03
      1.28718314e-03 1.32118911e-03 2.63279583e-03 2.27928831e-04
      3.60674050e-04 5.74658567e-04 1.30861416e-03 1.62950892e-03
      1.97666464e-03 6.74565730e-04 2.63279583e-03 2.63279583e-03
      1.01447047e-03 5.37311716e-04 1.08223734e-03 2.13595177e-03
      2.36873631e-03 2.09981226e-03 5.89423231e-04 2.63279583e-03
      3.85545020e-04 2.04959593e-04 3.16406164e-04 1.14393514e-03
      2.56299088e-03 2.55265413e-03 1.83125993e-03 9.75660398e-04
      4.96654189e-04 4.32843925e-04 5.43295289e-04 3.09869822e-04
      1.88225997e-03 2.63279583e-03 2.63279583e-03 2.43683509e-03
      1.42697105e-03 3.92091024e-04 3.15182516e-03 7.19169155e-04
      2.39649278e-04 3.76941054e-04 7.42857170e-04 1.91147043e-03
      7.96518521e-04 8.06929776e-04 3.15182516e-03 1.92887103e-03
      1.56434777e-04 1.29808977e-04 2.26975360e-04 1.15481997e-03
      3.15182516e-03 2.73692701e-03 1.27131504e-03 2.44397018e-03
      5.19890513e-04 4.65786463e-04 1.84485965e-04 9.28811147e-04
      2.50411686e-03 2.86393100e-03 7.97409040e-04 8.54167854e-04
      3.95712850e-04 3.00181971e-04 2.12496612e-04 2.63263006e-04
      4.25726554e-04 3.15182516e-03 3.15182516e-03 2.31546583e-03
      6.43937441e-04 1.99124232e-04 6.03081367e-04 1.44507285e-04
      1.36079019e-04 3.65728338e-04 1.16881903e-03 3.36335390e-03
      2.95800087e-03 7.79388647e-04 5.98998973e-04 5.68068790e-05
      1.08490727e-04 1.37065756e-04 3.28065915e-04 2.26821727e-03
      3.36335390e-03 1.49022962e-03 2.85944610e-04 6.65796761e-05
      1.02977305e-04 2.25412441e-04 3.33880045e-04 5.37428423e-04
      3.36335390e-03 3.36335390e-03 3.19055398e-03 3.91653710e-04
      7.58482056e-05 7.39989991e-06 5.08066405e-05 1.10264766e-04
      2.70978344e-04 2.76238262e-03 3.36335390e-03 2.29642866e-03
      2.72527774e-04 1.53730216e-04 1.97235422e-05 3.38861610e-05
      1.60548061e-05 2.63784779e-04 3.64958961e-03 2.55733402e-03
      9.13633194e-05 9.77712534e-06 1.22362871e-05 3.58459056e-06
      2.18872101e-05 2.22589570e-05 4.54018591e-04 3.64958961e-03
      3.64958961e-03 1.95103363e-04 2.45799074e-05 3.36371295e-06
      8.51442674e-05 1.00740603e-04 3.83340157e-05 3.24803550e-04
      3.64958961e-03 3.48274759e-03 8.15968742e-05 6.36806362e-06
      3.01279542e-05 1.55332255e-05 3.72483773e-05 3.38139716e-06
      7.16206734e-04 3.64958961e-03 3.64958961e-03 2.67181022e-04
      5.33637649e-05 4.78940165e-05 1.53894725e-05 3.08430972e-05
      4.98619411e-05 8.89456423e-04 3.74667882e-03 3.51353805e-03
      1.32817775e-04 1.85532408e-05 9.35650678e-06 2.14808068e-04
      1.47302810e-04 1.80993782e-04 7.90118938e-04 3.74667882e-03
      1.92762120e-03 4.21572564e-04 2.38180248e-04 3.83414619e-04
      2.27295328e-04 1.13642800e-05 6.98929171e-06 1.47975120e-03
      3.74667882e-03 3.48333898e-03 5.08890545e-04 3.06260335e-04
      4.42813965e-04 1.20779884e-03 1.91793486e-04 1.79804483e-04
      9.71162459e-04 3.74667882e-03 1.91958563e-03 7.04638427e-04
      9.06171335e-04 1.76006963e-03 5.56826591e-04 4.01783909e-04
      5.52667538e-04 9.04239248e-04 1.49897998e-03 1.10303704e-03
      7.47978222e-04 8.00263195e-04 1.03557506e-03 1.05796708e-03
      1.04016380e-03 1.42662192e-03 2.21461058e-03 2.53682700e-03
      1.71853171e-03 5.85348287e-04 8.49255419e-04 1.44545408e-03
      2.53682700e-03 1.14432652e-03 1.75746263e-03 1.77484308e-03
      1.73930335e-03 1.02489546e-03 5.18716290e-04 1.01684185e-03
      2.53682700e-03 2.53682700e-03 2.09809560e-03 2.53682700e-03
      2.53682700e-03 2.53682700e-03 2.08292971e-03 8.60479835e-04
      1.81013974e-03 2.53682700e-03 7.49746803e-04 6.83064456e-04
      1.09071890e-03 1.84116617e-03 2.43297336e-03 1.61120668e-03
      5.22073184e-04 9.46708373e-04 1.01506594e-03 4.99745249e-04
      2.07951030e-04 4.95977933e-04 1.45125436e-03 2.43297336e-03
      2.27447599e-03 6.55690441e-04 1.20035885e-03 6.43666775e-04
      2.18937406e-03 9.27911606e-04 2.05947692e-03 2.43297336e-03
      2.43297336e-03 2.05354649e-03 1.41653593e-03 2.38162256e-03
      2.43297336e-03 2.43297336e-03 6.31317555e-04 1.38127862e-03
      1.68874161e-03 2.43297336e-03 1.64812384e-03 8.16501968e-04
      1.24987657e-03 2.43297336e-03 3.13752156e-04 7.79264301e-05
      1.84589866e-04 9.50030691e-04 2.79326434e-03 2.24387553e-03
      1.23425049e-03 8.69840384e-04 3.54512333e-04 1.22417070e-04
      8.87330898e-05 1.57259608e-04 1.76436093e-03 2.79326434e-03
      2.79326434e-03 2.64544180e-03 1.53608655e-03 4.07908927e-04
      2.56112148e-03 3.87485779e-04 4.58044145e-04 7.34658155e-04
      2.79326434e-03 1.70842302e-03 4.89711296e-04 4.01788100e-04
      2.05181027e-03 1.95637043e-03 2.94058962e-04 6.20386447e-04
      1.20281475e-03 2.79326434e-03 2.79326434e-03 2.37820856e-03
      1.17387564e-03 1.99298467e-03 1.48308944e-04 1.07380685e-04
      1.18799268e-04 1.01593917e-03 2.46737665e-03 2.72733043e-03
      1.16639386e-03 7.33576424e-04 3.02067638e-04 1.55192218e-04
      9.03439359e-05 1.83976328e-04 4.76666435e-04 3.36722191e-03
      3.36722191e-03 1.13487081e-03 2.60819768e-04 1.21776524e-04
      1.45616336e-03 2.46117677e-04 4.07177722e-04 9.40422353e-04
      2.51648109e-03 3.36722191e-03 1.59358990e-03 9.51842638e-04
      1.76214636e-03 2.18995567e-03 3.15718004e-04 5.80162858e-04
      1.02891889e-03 3.36722191e-03 3.36722191e-03 7.27245293e-04
      2.88055948e-04 1.30208035e-03 1.91297895e-05 5.62218593e-05
      1.57880786e-04 4.27452091e-04 3.50104063e-03 3.50104063e-03
      1.17124745e-03 1.02994440e-04 3.59166916e-05 9.48191087e-07
      1.59599422e-05 4.14168499e-05 2.39250396e-04 2.66749132e-03
      3.50104063e-03 1.20801840e-03 1.47369094e-04 1.04296327e-04
      7.25481077e-04 4.18463751e-04 4.91641811e-04 8.25885974e-04
      3.50104063e-03 3.50104063e-03 6.82673592e-04 8.99520892e-05
      3.88870103e-04 7.83581854e-05 3.64529522e-04 1.37776515e-04
      6.79087127e-04 3.50104063e-03 3.50104063e-03 8.33738537e-04
      1.04010229e-04 1.09534456e-04 9.85693550e-05 5.02411931e-05
      3.53095238e-05 3.29778093e-04 3.23729496e-03 2.90968874e-03
      1.59299045e-04 1.40081684e-04 1.25252220e-04 5.11197606e-04
      5.73955513e-05 1.45048182e-06 3.82212107e-04 3.23729496e-03
      3.23729496e-03 6.97216776e-04 3.80364363e-04 9.42411076e-04
      1.26456039e-03 3.37974852e-05 4.00116660e-05 1.04839879e-03
      3.23729496e-03 1.93584745e-03 6.88379630e-04 6.09984039e-04
      1.81152776e-03 3.23729496e-03 1.39057942e-04 1.86250600e-05
      5.64865244e-04 3.23729496e-03 1.74658000e-03 9.66966094e-04
      9.14734846e-04 3.23729496e-03 1.52095826e-03 4.23122619e-05 0.
      3.64071253e-04 3.37595167e-03 2.10029352e-03 9.02437663e-04
      4.76024929e-04 2.20836885e-03 3.37595167e-03 1.28914282e-04
      1.23944803e-04 2.20295653e-04 1.86914264e-03 8.60900676e-04
      6.23402244e-04 7.19048257e-04 3.37595167e-03 3.37595167e-03
      1.15741605e-04 0. 8.61414883e-05 9.27841815e-04 5.81358734e-04
      5.83137851e-04 3.30178707e-04 3.37595167e-03 3.37595167e-03
      1.01138670e-04 3.38980171e-05 1.96206329e-05 2.57416832e-04
      1.75814828e-04 2.71441764e-04 1.84918405e-04 3.37595167e-03
      3.28452815e-03 8.71422060e-04 9.77954245e-04 7.32834509e-04
      3.89217428e-04 1.19092707e-04 7.40955802e-05 2.95052130e-04
      3.28452815e-03 3.28452815e-03 1.05711992e-03 1.65628048e-03
      1.90429226e-03 1.30997854e-03 4.60167590e-04 3.40251776e-04
      7.53607892e-04 3.28452815e-03 3.28452815e-03 3.89149645e-04
      2.34220701e-04 1.25186692e-04 6.87052452e-05 1.66128234e-06
      5.64276161e-06 4.66443707e-05 3.28452815e-03 3.28452815e-03
      3.98575445e-04 3.54514836e-04 3.77087417e-04 2.39829984e-04
      8.49979115e-05 5.59337313e-05 1.83496712e-04 3.28452815e-03
      3.38660507e-03 2.77216313e-04 7.32604880e-04 1.06418843e-03
      1.05622609e-03 7.46641890e-04 7.70009763e-04 1.25616114e-03
      3.39708012e-03 3.39708012e-03 2.51101184e-04 3.56197939e-04
      3.59236903e-04 7.75998225e-04 3.53286683e-04 3.74284486e-04
      6.07119640e-04 3.39708012e-03 3.39708012e-03 5.07244331e-05
      1.06499239e-04 1.68265236e-04 1.71111882e-04 1.72490036e-04
      1.48375533e-04 3.07940936e-04 3.39708012e-03 3.39708012e-03
      1.45482554e-05 4.05365154e-06 1.93838114e-05 8.23744558e-05
      7.08060325e-05 8.47994816e-05 1.67557300e-04 3.39708012e-03
      3.35456035e-03 2.14069689e-04 2.60216999e-04 1.73012610e-04
      7.53740722e-04 2.95389822e-04 5.27873781e-05 8.35990286e-05
      3.35456035e-03 3.35456035e-03 3.63403087e-04 7.07339437e-04
      3.04455229e-04 2.07607378e-03 1.68168440e-03 6.88109838e-04
      4.93997417e-04 3.35456035e-03 3.35456035e-03 4.01245925e-05
      6.68462962e-05 1.26553259e-05 6.18278282e-05 1.47559485e-05
      5.94341202e-07 9.98384076e-06 3.35456035e-03 3.35456035e-03
      1.57621616e-04 2.95172678e-04 2.64617629e-05 2.63302180e-04
      7.88842954e-05 1.81890297e-04 1.38382384e-04 3.35456035e-03
      3.25209415e-03 2.85295275e-04 4.12224297e-04 2.75241502e-04
      1.29307027e-03 1.21362356e-03 7.96504086e-04 5.85934555e-04
      3.25209415e-03 3.25209415e-03 3.90985631e-04 7.45711674e-04
      6.01999462e-04 2.42470670e-03 1.76851416e-03 3.09501513e-04
      1.96908892e-04 3.25209415e-03 3.25209415e-03 1.28027707e-04
      1.39944939e-04 1.76833782e-05 1.94380002e-04 4.84783159e-05
      2.12758096e-04 2.06278652e-04 3.25209415e-03 3.25209415e-03
      1.74956978e-04 2.71149067e-04 9.26790090e-05 2.55733350e-04
      9.64706414e-05 5.37886408e-05 2.21511233e-04 3.25209415e-03
      2.99319811e-03 1.24530168e-03 1.24242064e-03 9.56713047e-04
      2.99319811e-03 2.99319811e-03 6.02415879e-04 3.59108439e-04
      2.47787079e-03 1.03212218e-03 1.08802423e-03 3.47282243e-04
      8.68418661e-04 2.92603113e-03 2.99319811e-03 7.66605954e-04
      4.93622443e-04 9.01631487e-04 2.99319811e-03 4.94095148e-04
      4.83681943e-04 1.80510222e-04 4.67204052e-04 3.17251484e-04
      2.12880579e-04 5.14917425e-04 2.99319811e-03 2.99319811e-03
      5.06771845e-04 2.48435477e-04 4.15229471e-04 6.36868877e-04
      9.58419347e-04 6.72546623e-04 8.05218238e-04 2.99319811e-03
      3.52003099e-03 9.04305140e-04 9.33755771e-04 1.01661624e-03
      2.22084206e-03 1.09574183e-04 1.91471467e-04 2.96711427e-04
      3.52003099e-03 3.52003099e-03 5.64229384e-04 3.73339310e-04
      1.43307043e-04 6.60589722e-05 1.30133529e-04 3.08051938e-04
      2.59529799e-04 3.52003099e-03 1.66117074e-03 7.09682470e-04
      1.05738628e-03 2.29931786e-03 3.52003099e-03 4.75648150e-04
      7.50093022e-04 5.45992574e-04 1.16094272e-03 2.38030846e-03
      8.06778378e-04 1.25547929e-03 8.80974752e-04 8.20557354e-04
      5.41494461e-04 1.11913669e-03 5.98675164e-04 2.42734817e-03
      3.88466893e-03 4.10442357e-04 2.06419660e-04 2.71553523e-04
      7.46356964e-05 9.45205029e-05 3.05900787e-04 3.50864691e-04
      3.88466893e-03 3.88466893e-03 5.69499331e-04 2.50451150e-04
      2.48076132e-04 1.83714757e-04 5.08521698e-05 2.71127443e-04
      4.64968121e-04 3.88466893e-03 2.42506526e-03 7.09086831e-04
      8.59231804e-04 1.04441133e-03 6.21013693e-04 5.09172736e-04
      1.12391857e-03 7.48646620e-04 2.36879149e-03 2.99963378e-03
      9.62977763e-04 8.77394399e-04 8.74073943e-04 9.94148548e-04
      6.39386708e-04 9.41816659e-04 7.63892429e-04 2.70914007e-03
      3.85517487e-03 4.36640461e-04 1.80714356e-04 1.08598397e-04
      2.44745868e-04 8.19364359e-05 1.87507219e-04 2.81827495e-04
      3.85517487e-03 3.85517487e-03 2.87824107e-04 1.73455119e-04
      7.09193919e-05 4.70021914e-04 2.15130043e-04 2.49463134e-04
      4.11250803e-04 3.85517487e-03 2.60317838e-03 7.82920572e-04
      5.61315799e-04 4.28600761e-04 9.14236996e-04 5.59241860e-04
      6.07779308e-04 3.70503491e-04 2.64808978e-03 2.84523400e-03
      5.51969046e-04 5.23611845e-04 5.61231282e-04 1.56225276e-03
      6.67263055e-04 7.94529042e-04 6.75089948e-04 3.10073653e-03
      3.32811987e-03 2.98235624e-04 2.36306543e-04 4.97878122e-04
      1.27809239e-03 2.55125749e-04 2.05841716e-04 5.87517221e-04
      3.32811987e-03 3.32811987e-03 9.62761813e-04 4.23466961e-04
      1.11458427e-03 2.08598981e-03 3.90937959e-04 1.66440703e-04
      5.89641684e-04 3.32811987e-03 1.33002491e-03 2.12653336e-04
      2.93527555e-04 1.48662040e-03 3.32811987e-03 1.03694806e-03
      5.15989377e-04 5.25359821e-04 1.76767702e-03 1.51529268e-03
      4.66067228e-04 2.34184990e-04 2.73958780e-03 3.32811987e-03
      1.55415770e-03 3.01636348e-04 3.05825291e-04 1.40579254e-03
      3.62388790e-03 3.08113522e-04 1.02962666e-04 3.39237711e-04
      3.10818409e-03 9.53812385e-04 5.59385750e-04 6.19944942e-04
      3.62388790e-03 1.55542325e-03 6.29751157e-05 5.28233031e-05
      2.39367539e-04 3.62388790e-03 1.45434064e-03 1.02973543e-03
      8.37568776e-04 2.95547745e-03 9.52603121e-04 1.67161343e-04
      8.08153854e-05 1.05561560e-03 3.62388790e-03 1.09196012e-03
      2.75901897e-04 2.39647168e-04 1.03122159e-03 2.94745085e-04
      1.31503068e-04 2.71996978e-04 1.09179865e-03 3.62388790e-03
      1.01688714e-03 3.18849750e-04 3.43501859e-04 5.67430514e-04
      1.05514762e-03 1.24388753e-04 9.24704946e-05 1.93449465e-04
      3.13048717e-03 2.66233599e-03 1.35112077e-03 8.15507083e-04
      1.53538724e-03 3.63567058e-04 2.36622276e-04 4.38181974e-04
      3.89091845e-04 3.13048717e-03 3.13048717e-03 2.88786879e-03
      8.26373755e-04 6.69975125e-04 4.42189339e-04 1.95505345e-04
      3.81425372e-04 8.64293776e-04 3.13048717e-03 2.53868243e-03
      6.74869865e-04 4.65237303e-04 5.38079825e-04 2.56587198e-04
      2.88422249e-04 6.40117330e-04 1.48253411e-03 3.13048717e-03
      3.13048717e-03 2.41875625e-03 7.13592861e-04 3.53162555e-04
      6.35069387e-04 4.30932792e-04 6.53986470e-04 4.23166406e-04
      1.47962826e-03 2.80193146e-03 1.45677279e-03 2.93009740e-04
      3.91237874e-04 1.69979187e-03 1.57005969e-03 2.82074371e-03
      4.02446807e-04 2.44813127e-04 3.25091270e-04 2.53971637e-04
      2.35138737e-04 8.53082514e-04 3.27510003e-04 5.20915841e-04
      2.37631914e-03 1.99586549e-03 2.82074371e-03 2.82074371e-03
      2.61305086e-03 7.39535026e-04 2.45338480e-04 2.33331346e-03
      2.41223583e-03 2.82074371e-03 2.82074371e-03 1.64397864e-03
      1.79804314e-03 8.59774183e-04 6.43443549e-04 2.00310070e-03</_>
    <_>
      -3.13347066e-03 -3.06353346e-03 -6.00851607e-04 1.44026719e-03
      4.02776618e-03 6.00450090e-04 2.40798981e-04 3.54158110e-04
      -1.48392101e-05 -2.32227822e-03 -2.43548001e-03 -2.08183381e-04
      2.21556728e-03 3.90375103e-03 7.99783214e-04 3.23851040e-04
      3.29664792e-04 1.61583012e-04 -3.41352844e-03 -3.32378806e-03
      -2.27794939e-04 1.90948113e-03 4.04513394e-03 6.76999451e-04
      8.29850687e-05 3.20633044e-05 -5.24353469e-04 -2.98172398e-03
      -2.46358989e-03 4.06334177e-04 2.90970923e-03 4.03228076e-03
      1.39980367e-03 4.48660539e-05 1.37241557e-04 -5.13227948e-04
      -2.56851828e-03 -3.07600852e-03 -2.96974846e-04 5.08971920e-04
      2.99984962e-03 4.58755007e-04 1.51195505e-04 1.50166408e-04
      1.46311373e-04 2.61640263e-04 -2.66950624e-03 7.33249588e-04
      1.51995360e-03 3.70907970e-03 3.58468125e-04 7.67900856e-05
      3.60988633e-05 1.94319035e-03 -3.20396968e-03 -3.05254641e-03
      -6.66146516e-04 6.87874155e-04 3.95445339e-03 1.18556735e-03
      -5.64873226e-05 -1.89642424e-06 -7.19210366e-04 -2.74177175e-03
      -3.09352600e-03 -8.16490036e-04 2.59804144e-03 3.88345052e-03
      1.12322310e-03 8.41169458e-05 -2.55335126e-05 -3.41452134e-04
      1.08215812e-04 -2.50751013e-03 7.51564337e-04 9.31628281e-04
      2.12015817e-03 7.17986477e-05 1.52814464e-04 1.02765393e-04
      2.81068007e-03 1.08215812e-04 -2.84758583e-03 1.90918596e-04
      9.06625428e-05 -3.99983110e-05 9.84921280e-05 2.61394802e-04
      1.54934387e-04 2.49631074e-03 -1.75064441e-03 -2.70213280e-03
      5.19530615e-04 1.91216671e-03 3.23495781e-03 2.80178792e-04
      6.06516784e-04 6.94616538e-05 4.83137730e-04 -1.03150669e-03
      -2.60503683e-03 7.86374731e-04 2.56089057e-04 4.86899924e-04
      2.49255740e-04 6.79240504e-04 2.12575498e-04 8.73021199e-04
      6.63563609e-04 -2.43825465e-03 4.77213798e-05 2.42057853e-04
      -4.22426128e-05 4.83589138e-05 1.86015604e-04 2.66551098e-04
      2.17899890e-03 6.63563609e-04 -3.53103940e-04 1.19937959e-05
      1.27499516e-04 -5.93650511e-05 -4.87015495e-05 4.38868447e-05
      -1.06836225e-04 1.26781466e-03 -7.96039996e-04 -2.11555138e-03
      2.69823522e-05 7.99041067e-04 4.87147277e-04 2.60788336e-04
      3.54387594e-05 4.59066709e-04 -4.70690138e-04 -2.21471491e-04
      -7.00118602e-04 -9.91914421e-04 2.90829685e-05 7.88187026e-04
      3.67430330e-04 -1.06852356e-04 -7.06507184e-04 -5.11965132e-04
      8.82329652e-04 2.25631724e-04 -7.74000830e-04 -4.54342633e-04
      -1.77862210e-04 -1.74948262e-04 -1.58790586e-04 -1.06592453e-03
      1.36251387e-03 3.25415563e-03 3.31839365e-05 -7.36806309e-04
      -4.69058519e-04 4.12083791e-05 -3.37498641e-05 -1.38103773e-04
      -3.82537692e-04 3.17009585e-03 -3.69666814e-04 -6.94386654e-06
      -2.41152942e-03 -1.75187748e-03 2.14191896e-04 -8.91282762e-05
      9.24065716e-06 -2.60234158e-03 -3.24755325e-04 -1.27611158e-04
      -5.41097368e-04 -2.08044681e-03 -6.26070250e-04 9.98040079e-04
      1.62753422e-04 1.99057613e-04 -2.18310091e-03 1.27891297e-04
      2.77336594e-03 -2.20021218e-04 -4.89194237e-04 6.37554767e-05
      5.18347253e-04 -3.15989280e-04 -4.83149372e-04 1.22391473e-04
      2.86566583e-03 2.85516889e-03 4.00144374e-04 -3.62012885e-04
      5.51969686e-04 6.83338032e-04 -4.19746386e-04 -5.63785434e-04
      1.78257484e-04 2.62071355e-03 -2.05661287e-03 -2.12917454e-03
      -1.06503081e-03 5.70603530e-04 2.42273952e-03 3.00752232e-04
      -1.19675545e-03 -2.86127813e-03 -1.61896076e-03 -1.87134522e-03
      -2.75267172e-03 -9.12793621e-04 1.69004907e-03 1.95724121e-03
      9.82335419e-04 -9.97567549e-04 -1.88017520e-03 -1.98084535e-03
      3.18071246e-03 4.01529287e-05 -1.15686002e-04 4.17675838e-05
      1.87882106e-03 3.39389633e-04 -8.45497823e-04 -5.69120748e-04
      3.04154749e-03 8.97890190e-04 -2.40979367e-04 -1.24334838e-04
      -1.26013590e-04 1.79896515e-03 -1.32581126e-03 -2.30603665e-03
      -2.49820342e-03 2.40219035e-03 -2.38316902e-03 -1.72782550e-03
      -3.28117778e-04 6.58534234e-04 2.88572209e-03 8.43495247e-04
      -3.42531217e-04 -2.73312209e-04 -2.30455049e-03 -3.04102711e-03
      -8.65874521e-04 -4.40004296e-05 6.60215330e-04 2.88075022e-03
      4.23391873e-04 -1.85086916e-03 -1.31960143e-03 -2.76834168e-03
      -2.82767089e-03 -2.87402305e-03 -2.41307731e-04 7.61263364e-04
      3.67289269e-03 -7.43418923e-07 -2.63849302e-04 -3.00133543e-04
      -5.82223118e-04 -2.59706564e-03 -2.50283978e-03 -6.62869948e-04
      1.25236134e-03 3.12949507e-03 5.50491910e-04 -6.57549361e-04
      -6.36335471e-06 -3.70811409e-04 -4.73380001e-04 -1.30038930e-03
      -1.48087612e-03 2.93712772e-04 2.87822774e-03 -2.20697366e-05
      -8.72218516e-04 -4.10500303e-04 -2.46559619e-04 -2.35735346e-03
      -2.74884747e-03 -2.06965976e-03 2.38324850e-04 1.83091254e-03
      8.83706438e-04 -2.20781122e-03 -2.56710569e-04 -1.91812476e-04
      -2.86727562e-03 -2.87917885e-03 -1.50835665e-03 -1.09874869e-04
      3.67271248e-03 6.40542596e-04 -3.91935959e-04 -1.52231325e-04
      -6.40295795e-04 -2.90527381e-03 -2.95893056e-03 -2.44206819e-03
      5.07178367e-04 3.85076995e-03 1.51151419e-03 -1.67283171e-04
      -5.69085358e-04 -7.71815015e-04 -2.24740244e-03 -2.97068665e-03
      -2.00910890e-03 -8.37154570e-04 2.97809253e-03 1.37957220e-03
      -7.18799885e-04 -1.61178003e-04 -4.41508397e-04 -2.64690863e-03
      -2.88020447e-03 -1.86853355e-03 -3.01659544e-04 3.43834516e-03
      3.19390511e-03 -4.64959085e-05 -6.64923456e-04 -8.15857318e-04
      -2.23271642e-03 -2.36462802e-03 -6.39671111e-04 4.46205522e-04
      2.34550540e-03 9.62711114e-04 4.40354022e-04 -1.02911820e-03
      -8.68723029e-04 -1.40682084e-03 -2.09290860e-03 -4.99997986e-04
      -7.15844275e-04 8.31112266e-06 -8.77277562e-05 3.76214826e-04
      -7.34073285e-04 -7.98093970e-04 -8.40092427e-04 -1.48955744e-03
      -5.68454852e-04 7.63095857e-04 2.48792185e-03 2.42348528e-03
      8.39767163e-04 -9.50919115e-04 -3.50186834e-04 4.40147211e-04
      -6.34816883e-04 -4.34885849e-04 1.25174795e-03 2.25355127e-03
      4.96314897e-04 9.23470303e-04 -2.85181188e-04 7.26526254e-04
      -1.50436466e-03 -2.13616202e-03 -9.59088560e-04 5.27402561e-04
      4.73860564e-04 3.47517489e-04 1.34500122e-04 3.46016051e-04
      5.57667634e-04 -1.98490173e-03 -1.93766865e-03 -1.18057732e-03
      4.68210841e-04 9.44153289e-04 8.83555273e-04 7.78564063e-05
      1.39852695e-04 -9.36385710e-04 -2.28557881e-04 -1.26219587e-03
      -2.42754817e-04 1.20938302e-03 2.02865992e-03 1.40951970e-03
      1.51096296e-03 1.39712007e-03 5.83184185e-04 -2.28557881e-04
      -1.13684719e-03 -3.90206114e-04 1.27667736e-03 2.09811819e-03
      2.23798165e-03 1.56630576e-03 2.13402533e-03 -2.28557881e-04
      -7.70507031e-04 -4.27937368e-04 -1.48867068e-04 5.48836193e-04
      1.00069959e-03 1.24115893e-03 5.35228464e-04 -6.44200423e-04
      -1.56683731e-03 -1.77043548e-03 -1.93797995e-03 4.30876651e-04
      1.01456163e-03 1.92426180e-03 8.93469027e-04 1.08419731e-03
      -1.12491893e-03 -1.69207121e-03 -5.35475323e-04 -8.58608924e-04
      8.77665414e-04 1.89620955e-03 1.80908199e-03 1.80313003e-03
      6.72874448e-04 1.82556885e-03 -5.35475323e-04 -5.35475323e-04
      -1.76021224e-03 1.19357568e-03 1.21014297e-03 1.72902877e-03
      1.34284096e-03 1.38948055e-03 9.95689654e-04 -5.35475323e-04
      -2.40334612e-03 -2.23590573e-03 5.43770962e-04 1.89617486e-03
      2.97170691e-03 1.46146375e-03 6.41659601e-04 -1.01171841e-03
      -2.38988572e-03 -2.70028482e-03 -2.18127226e-03 2.34979496e-04
      2.96348496e-03 2.96042790e-03 1.95084244e-03 3.92524147e-04
      -6.59527490e-04 -2.15548580e-03 -7.79183523e-04 -2.18329136e-03
      8.95949546e-04 1.40716531e-03 2.86815688e-03 1.63382478e-03
      1.60675705e-03 -7.56279507e-04 -1.44268130e-03 -2.02879985e-03
      -2.16513290e-03 7.19803444e-04 2.92697083e-03 2.80582602e-03
      2.55027553e-03 8.57762818e-04 -1.35953596e-03 -2.32888665e-03
      -3.22668464e-03 -1.83605857e-03 -8.89186485e-05 1.23420928e-03
      4.27779881e-03 5.86789509e-04 -6.95687731e-06 -3.48957226e-04
      -3.23621626e-03 -3.08119599e-03 -3.72469571e-04 2.07535923e-04
      1.49487611e-03 4.28010570e-03 3.63694504e-04 -1.54094214e-05
      -8.06877972e-04 -3.05580953e-03 -2.97651649e-03 -1.22160790e-03
      1.06646985e-04 2.45086267e-03 4.17836150e-03 5.03872638e-04
      -7.08273845e-04 -1.49458647e-03 -3.11688008e-03 -2.95957038e-03
      -2.54635324e-05 2.00935217e-04 3.36025748e-03 4.26332653e-03
      1.87331025e-04 -8.08834971e-04 -2.01958185e-03 -3.08355689e-03
      -9.47687251e-04 -2.55929725e-03 -2.65924633e-03 -3.37378384e-04
      2.99809803e-03 2.27246506e-04 -6.66596345e-04 -4.83890151e-04
      -6.77337637e-04 -1.14252220e-03 -2.70878570e-03 -2.28214380e-03
      -7.22359284e-04 2.65275198e-03 1.01950520e-03 -1.15301681e-03
      -4.31809545e-04 -4.79965674e-05 -1.19539746e-03 -2.78366497e-03
      -2.72068428e-03 -1.38741219e-03 2.91582127e-03 5.62315574e-04
      1.97190500e-04 -1.45443046e-04 -3.09166149e-04 2.60438351e-03
      -2.64120172e-03 -2.60841870e-03 -9.94582195e-04 2.72623193e-03
      7.66596815e-04 7.38730654e-04 2.02675088e-04 2.85584247e-03
      -1.23121683e-03 -2.31820834e-03 -2.21302360e-03 -1.16998225e-03
      2.05537025e-03 1.21893617e-03 -2.58621905e-04 -3.80032317e-04
      -1.85068318e-04 -9.60597827e-04 -2.32252269e-03 -2.36133416e-03
      -7.68480066e-04 2.17518397e-03 1.88185391e-03 5.98548271e-04
      -4.17824107e-04 9.48968576e-04 2.34088069e-03 -1.36330072e-03
      -2.09826929e-03 -1.19101210e-03 4.70319093e-04 -5.81766653e-04
      -2.60870816e-04 -1.24579878e-03 2.34076940e-03 1.61318341e-03
      -2.35503376e-03 -2.38573202e-03 -1.69187668e-03 1.28621841e-03
      -8.88413633e-04 -8.60382221e-04 -1.98955485e-03 9.13616095e-04
      1.75123816e-04 -2.26967619e-03 -1.10236113e-03 3.36769972e-06
      3.07878270e-03 6.79377874e-04 5.78442996e-04 -1.27943480e-04
      1.33780937e-03 6.18460763e-04 -1.63245481e-03 -1.07918587e-03
      4.98482666e-04 7.34212226e-04 1.90627354e-04 3.14000587e-04
      1.01336205e-04 1.36835768e-03 6.18460763e-04 -2.57371017e-03
      -1.67422125e-03 -6.46072614e-04 4.97503206e-04 -3.12076125e-04
      4.96473149e-06 -2.01034034e-03 6.18460763e-04 6.18460763e-04
      -2.17539817e-03 -1.27867516e-03 -3.40219907e-04 -1.29709486e-04
      -7.27409133e-05 1.16912706e-04 -1.35757972e-03 6.18460763e-04
      8.53094738e-04 -1.38964120e-03 -4.64961369e-04 3.48821457e-04
      5.57168212e-04 1.62726647e-04 4.61975986e-04 3.91197304e-04
      1.07946398e-03 4.41704382e-04 -1.04248431e-03 -1.49289612e-03
      -7.42787321e-04 -5.60465734e-04 -8.84663081e-04 -4.18809504e-04
      -7.84063304e-05 8.53094738e-04 8.53094738e-04 -1.68843672e-03
      -7.78608315e-04 -8.00492053e-05 -1.97640780e-04 -1.97505200e-04
      5.18640118e-05 -1.03399926e-03 8.53094738e-04 8.53094738e-04
      -2.35288593e-04 -6.63781248e-04 -5.94180194e-04 -1.13397615e-03
      -1.75549067e-03 -1.09969685e-03 -1.61353650e-03 8.53094738e-04
      -1.09042077e-04 -1.10842055e-03 -1.38572999e-03 -4.78935166e-04
      -8.82055843e-04 -7.84527161e-04 -6.23712549e-04 -7.30496366e-04
      9.43097344e-04 8.55011924e-04 -1.93532777e-03 -4.92733670e-04
      -2.43017930e-04 -1.15439249e-03 -1.24481111e-03 -1.93623651e-04
      -9.95649723e-04 1.08580291e-03 2.23880331e-03 -2.30670688e-04
      -5.30639081e-04 -4.10217297e-04 -9.71974107e-04 -1.09799160e-03
      -8.70341319e-04 -1.89714902e-03 1.08580291e-03 1.08580291e-03
      -1.28218182e-03 -6.75035233e-04 -2.87101604e-04 -1.12939475e-03
      -1.05837802e-03 -2.83931789e-04 -2.20186776e-03 1.08580291e-03
      5.81100292e-04 -1.95970526e-03 -4.38574614e-04 -2.43001879e-04
      -5.84729023e-05 -6.14672201e-04 -5.19528636e-04 -1.89576030e-03
      5.90108917e-04 3.34532553e-04 -1.31403911e-03 -6.49119553e-04
      -2.21485723e-04 2.78044346e-04 1.75943074e-04 -1.21012609e-03
      -2.03142595e-03 8.00192938e-04 1.29138853e-03 -2.06735660e-03
      -1.20639906e-03 -4.83780546e-04 -8.66260962e-04 -7.74890243e-04
      -3.49483453e-04 -5.61809458e-04 1.29138853e-03 1.29138853e-03
      -2.05752254e-03 -1.77898933e-03 -1.13011105e-03 -8.73263110e-04
      -2.22631512e-04 -4.09802218e-04 -4.20372351e-04 2.16995948e-03
      -1.17615164e-04 -5.60003973e-04 -3.66494583e-04 1.05238997e-03
      2.32467055e-03 -6.98811928e-05 -2.31732638e-03 -2.34149140e-03
      -4.26699058e-04 -8.09799356e-04 -2.00150083e-04 2.03267482e-05
      2.51859403e-03 2.99130497e-03 -1.97554808e-04 -2.38895649e-03
      -2.42691115e-03 -1.96879264e-03 7.87363038e-04 -1.56335300e-03
      -1.17739791e-03 -3.56185366e-04 2.29851983e-04 -1.65228616e-04
      -1.00932689e-03 -1.10877526e-03 9.42703919e-04 7.87363038e-04
      -1.38872559e-03 -5.54593687e-04 1.06264092e-03 1.69224653e-03
      -2.05804201e-04 -1.66568998e-03 -1.84210355e-03 1.45740295e-03
      -1.28841761e-03 -1.99252344e-03 -1.86059636e-03 -1.18394033e-03
      2.31701997e-03 1.91274434e-04 8.91294330e-05 3.28188180e-04
      4.83379350e-04 1.95102429e-03 -1.53618306e-03 -1.28094421e-03
      -1.40600489e-03 2.71708658e-03 3.38806945e-04 5.86681650e-04
      -2.39332021e-05 2.20898120e-03 -1.55883550e-03 -7.64203432e-04
      -5.06590062e-04 -9.43396939e-04 -5.08803132e-05 -1.15045859e-03
      -1.93374010e-03 -1.14537496e-03 -1.32126629e-03 -9.10925912e-04
      -1.20156154e-03 1.04588026e-03 4.44915000e-04 1.48725882e-03
      -5.96453494e-04 -1.79650576e-03 -1.78953202e-03 -8.20654619e-04
      2.77273590e-03 -1.73463940e-03 -7.97617424e-04 -6.50746864e-04
      1.34148751e-04 -4.19602351e-04 -1.56580922e-04 -1.22027297e-03
      3.04010231e-03 1.43021822e-03 -2.35137716e-03 -1.21598376e-03
      -5.91191754e-04 -8.76658014e-05 -8.31256388e-04 -8.48431955e-04
      -2.22563697e-03 1.43021822e-03 -4.48717561e-04 -2.28298572e-03
      -5.60785993e-04 -4.39774994e-05 1.47942069e-03 -6.45840075e-04
      -9.29088739e-04 -1.19059219e-03 -1.67362174e-04 3.67371744e-04
      -1.69812050e-03 -1.02076575e-03 4.53945075e-04 2.92145135e-03
      -1.14459137e-03 -1.44723209e-03 -1.91224006e-03 -1.37954240e-03
      8.07637582e-04 -1.72490568e-03 -3.93830531e-04 -1.98277834e-04
      -6.70255613e-05 -3.49644077e-04 -3.49540729e-04 -2.58671422e-03
      8.07637582e-04 8.07637582e-04 -1.89020263e-03 -3.89328576e-04
      -1.34290414e-04 -5.86699753e-05 -1.12188442e-04 -6.90915913e-05
      -2.02726969e-03 8.07637582e-04 8.07637582e-04 -1.60551770e-03
      1.11819507e-04 5.19545982e-04 1.48204842e-03 -4.20720142e-04
      -7.08555803e-04 -1.62623927e-03 -6.03288121e-04 8.07637582e-04
      -2.16999697e-03 -4.38696734e-04 8.67323834e-05 1.98987967e-04
      -2.95577920e-04 -4.55228961e-04 -1.30368525e-03 8.07637582e-04
      6.66188018e-04 -1.44395232e-03 -6.75431569e-04 -1.44178630e-04
      -1.14112845e-04 -1.40237680e-04 -1.24581289e-04 -1.95823447e-03
      6.66188018e-04 6.66188018e-04 -1.13572681e-03 -5.19937777e-04
      -2.11657432e-04 -3.10792617e-04 -4.44735779e-04 -4.05428815e-04
      -1.97373540e-03 6.66188018e-04 6.66188018e-04 -2.42188177e-03
      -8.60651489e-04 -4.29051492e-04 -2.15809559e-04 -4.63302014e-04
      -4.61220450e-04 -1.28984300e-03 6.66188018e-04 6.66188018e-04
      -2.72636325e-03 -1.19553192e-03 -6.14688965e-04 -4.29810345e-04
      -4.37852781e-04 -3.71402391e-04 -9.02451400e-04 8.27628071e-04
      8.52939789e-04 -8.98831582e-04 -2.74094724e-04 -9.32178300e-05
      -1.26424406e-04 -2.43346862e-04 -3.25904373e-04 -2.31807376e-03
      6.92009635e-04 6.92009635e-04 -1.71167462e-03 -5.52849786e-04
      -2.62153335e-04 -9.22995241e-05 -1.10985573e-04 -2.07955833e-04
      -1.82597223e-03 6.92009635e-04 6.92009635e-04 -2.72162165e-03
      -7.92000385e-04 -1.95880784e-04 -4.29108361e-04 -1.64188008e-04
      -2.50933925e-04 -7.51871616e-04 1.37917476e-03 6.92009635e-04
      -2.15294422e-03 -7.62894924e-04 -3.48682428e-04 -3.51298717e-04
      -1.03262711e-04 -1.05700537e-03 -2.67751003e-03 6.92009635e-04
      9.51860857e-04 -2.48927576e-03 -9.61635204e-04 -5.32636361e-04
      -3.44109896e-04 -2.73182493e-04 -2.31057464e-04 -7.94104533e-04
      9.51860857e-04 9.51860857e-04 -2.48815818e-03 -1.33260072e-03
      -6.92478847e-04 -3.08416958e-04 -3.15679965e-04 -3.97992961e-04
      -7.57556641e-04 1.84686750e-03 9.51860857e-04 -1.58995122e-03
      -6.04717701e-04 -4.73009219e-04 -2.09436432e-04 -5.90996293e-04
      -1.74525043e-03 -2.34006485e-03 9.51860857e-04 9.51860857e-04
      -8.94987548e-04 -1.54631096e-04 3.60735503e-05 -1.96342968e-04
      -8.33641563e-04 -1.64922234e-03 -2.38860468e-03 9.51860857e-04
      6.97402051e-04 -2.42696051e-03 -9.83715290e-04 -4.92520572e-04
      -6.15257886e-05 -1.43497309e-04 -4.28206113e-04 -6.89793727e-04
      1.18825538e-03 6.97402051e-04 -2.28347024e-03 -7.68157013e-04
      -3.18822946e-04 -1.70848056e-04 -4.19798540e-04 -5.70844277e-04
      -1.48660154e-03 8.55823746e-04 6.97402051e-04 -9.58355027e-04
      -1.86852631e-04 8.41647397e-06 -2.85117694e-05 1.88100734e-04
      -1.23733259e-03 -2.26474833e-03 6.97402051e-04 6.97402051e-04
      -9.23776417e-04 -2.52953527e-04 -1.66637576e-04 5.39404900e-05
      1.24553230e-03 -3.13418073e-04 -1.67715782e-03 6.97402051e-04
      -4.78843285e-04 -4.02028236e-04 1.06145439e-04 4.78358037e-04
      8.49941047e-04 -8.58761428e-04 -2.10180669e-03 -1.34290091e-03
      -1.01768493e-03 -8.02616240e-04 -5.53371327e-04 1.01336546e-03
      2.40947958e-03 2.86144903e-03 1.83201849e-03 -1.85022410e-03
      -1.46225456e-03 -1.45604671e-03 -8.10407568e-04 -3.38084064e-04
      -3.37785692e-04 -5.51144651e-04 4.88589285e-04 -1.45110721e-03
      -2.01991969e-03 -1.75209297e-03 -2.26671435e-03 -1.08669361e-03
      -9.27679823e-04 -7.28159619e-04 -1.01392718e-04 1.76107092e-03
      1.76107092e-03 -1.99184031e-03 -2.12320522e-03 -2.22832989e-03
      -6.27676549e-04 -7.53252301e-04 -2.02429364e-04 5.11267164e-04
      2.78498325e-03 -7.80598784e-05 -1.60211499e-03 -1.57743227e-03
      -1.61398086e-03 -7.83011026e-04 -6.13424229e-04 -1.46414633e-04
      6.61836471e-04 2.92501529e-03 2.99075851e-04 -1.69188261e-03
      -2.40778085e-03 -2.33500218e-03 -1.66454550e-03 -1.38840429e-03
      -1.37139426e-03 -6.41040533e-05 2.49578571e-03 1.75486621e-03
      -1.28224446e-03 -2.50485772e-03 -2.54292600e-03 -2.55313702e-03
      -1.16146100e-03 -1.07161875e-03 -2.13465275e-04 3.02025117e-03
      2.77584931e-03 -1.05826231e-03 -2.46040151e-03 -2.54578958e-03
      8.53340607e-04 -1.67812414e-05 2.76711624e-04 8.39563785e-04
      3.19067063e-03 8.76473438e-04 -8.39398417e-04 -2.66963104e-03
      -1.45460735e-03 7.47187412e-04 -8.00206908e-04 -4.06337873e-04
      2.30777601e-04 1.32082182e-03 -3.53730829e-05 -1.13385357e-03
      -2.52173492e-03 6.88588305e-04 -2.47093639e-03 -3.62334686e-04
      -2.24510470e-04 -2.10005783e-05 3.16554285e-03 2.93251011e-03
      -1.15040445e-03 -2.72261561e-03 -2.69420631e-03 -8.65434937e-04
      -9.48481247e-05 1.31159642e-04 1.06546206e-04 3.33436253e-03
      1.14377006e-03 -1.27120060e-03 -2.50876416e-03 -2.22044252e-03
      2.52581970e-03 -7.43803394e-04 -5.16765926e-04 -8.18631612e-04
      -4.78707952e-04 -4.00396093e-04 -6.93479844e-04 -2.11347709e-03
      2.04887730e-03 1.44714594e-03 -1.86045596e-03 -9.89851076e-04
      -1.09487830e-03 -1.00271311e-03 -7.88756122e-04 -8.22875299e-04
      -1.10488851e-03 2.56139343e-03 6.03782770e-04 5.04985568e-04
      4.39178199e-04 2.89373111e-06 4.26660670e-04 1.38178468e-04
      -4.28979460e-04 -1.79120619e-03 -1.33984978e-03 -6.50285045e-04
      1.14459915e-04 4.06193518e-04 5.90837968e-04 3.02148546e-04
      -2.69110664e-04 -1.15977728e-03 -1.66211929e-03 -7.42139062e-04
      1.07065588e-03 -2.07089540e-03 -4.64573328e-04 -1.20527933e-04
      -6.40509999e-04 9.07294452e-06 9.67244778e-05 -3.95093113e-04
      1.66702375e-03 1.07065588e-03 -1.07960158e-03 -8.34941166e-04
      2.50369427e-04 -2.49292556e-04 3.70224298e-04 -5.19021647e-04
      -1.17559091e-03 1.07065588e-03 -1.15032832e-03 -2.69595010e-04
      4.14837908e-04 1.08140509e-03 7.39859475e-04 1.09219446e-03
      4.50050829e-05 -1.74330710e-03 -9.58603050e-04 -1.50256278e-03
      -1.19807012e-03 -5.58698492e-04 1.33307371e-03 1.61396328e-03
      2.01173406e-03 3.28591326e-04 -1.32482557e-03 -1.29081961e-03
      4.88221936e-04 -1.07351493e-03 -1.33285148e-03 6.53827592e-05
      6.64989522e-04 7.20956770e-04 -5.08337747e-04 -1.85947830e-03
      1.27813278e-03 9.87517851e-05 -6.19062776e-05 -1.03172548e-04
      7.42784527e-04 1.50831870e-03 1.20777206e-03 1.15139337e-04
      -1.27900939e-03 9.87517851e-05 -2.14849901e-03 -2.09213700e-03
      -1.56526186e-03 6.60084828e-04 2.05100025e-03 1.95174804e-03
      7.77758716e-04 -1.45655440e-03 -2.03738990e-03 -2.10120017e-03
      -1.60560105e-03 -5.93552191e-04 1.50114682e-03 2.11254903e-03
      1.97001616e-03 1.61235710e-03 1.61324147e-04 -2.14195298e-03
      3.36856843e-04 -7.72557629e-04 -3.35199766e-05 3.05982394e-04
      5.47825650e-04 1.54294004e-03 -5.05747856e-04 -1.62571832e-03
      3.36856843e-04 -5.16490953e-04 -1.37467950e-03 -2.51680816e-04
      1.70678992e-04 1.03476574e-03 2.87557114e-03 1.45417755e-03
      -1.54365320e-03 -1.83282347e-04 -2.29507778e-03 -1.96543778e-03
      -3.82790400e-04 8.12000595e-04 2.33678916e-03 2.64015887e-03
      3.29941744e-04 -3.75679956e-04 -2.41925544e-03 -2.51478632e-03
      -2.26192153e-03 -6.73673931e-04 8.79647196e-05 2.97564990e-03
      2.94267526e-03 1.89295586e-03 -6.30072376e-04 -2.61584390e-03
      -1.02732494e-03 -3.24803754e-04 -1.86169738e-04 -4.81811760e-04
      -6.10406278e-04 -9.76689393e-04 -1.22314272e-03 -1.80151151e-03
      -1.93931698e-03 -1.39501959e-03 -7.21714809e-04 -4.16325376e-04
      1.41460900e-04 2.17930856e-03 1.74553704e-03 -2.21653841e-03
      -2.60464405e-03 -2.51114974e-03 -5.66291972e-04 -3.26957437e-04
      1.07372143e-04 6.36532786e-04 8.63865775e-04 2.39801186e-04
      -1.08540989e-03 -2.56939628e-03 -1.14113244e-03 -7.70582177e-04
      -2.42930619e-04 2.24505377e-04 9.75463481e-04 3.79870599e-03
      3.13860388e-03 -2.08479888e-03 -2.57001631e-03 -2.25562439e-03
      -1.90276781e-03 -9.42645769e-04 -1.10204134e-03 -1.25410574e-04
      3.18439421e-03 1.70704897e-03 -8.79177591e-04 -2.60131643e-03
      -2.59885727e-03 -2.60750903e-03 -1.92120683e-03 -1.53130374e-03
      -5.02949813e-04 3.13314982e-03 3.28264059e-03 -6.17981015e-04
      -1.60828966e-03 -2.60772975e-03 -1.03151670e-03 -4.33917536e-04
      -6.03442546e-04 1.07722726e-05 3.14400159e-03 2.28798110e-03
      -1.47277012e-03 -2.60472554e-03 -2.58096564e-03 -2.59556039e-03
      -2.18883436e-03 -1.35509309e-03 -5.65526949e-04 2.43058009e-03
      2.80430610e-03 -1.41385617e-03 -2.55772984e-03 -2.56319949e-03
      -2.65237433e-03 -1.28582248e-03 -5.84418187e-04 1.95914508e-05
      3.44740227e-03 3.25341849e-03 -6.59509155e-04 -1.70433754e-03
      -2.53099785e-03 -1.70747330e-03 -8.35062005e-04 -8.55172038e-06
      3.49473761e-04 3.60096176e-03 1.52989419e-03 -4.98940586e-04
      -2.52457312e-03 -2.37933872e-03 -2.53545796e-03 -2.38096085e-03
      -6.22614578e-04 6.78163779e-04 3.09537747e-03 3.08178691e-03
      -6.94402144e-04 -1.81428064e-03 -2.31993943e-03 -1.55495445e-03
      -2.57095997e-03 -9.66144362e-05 7.07932864e-04 3.47063644e-03
      1.57820224e-03 -2.03196178e-04 -1.48257043e-03 -1.00268377e-03
      -1.23253162e-03 -2.01049552e-04 4.27206483e-04 7.76192057e-04
      1.38765189e-03 6.88082771e-04 5.72794670e-05 -1.95885706e-03
      -1.84452767e-03 -1.63390068e-03 1.86207297e-04 1.24093145e-03
      2.01255060e-03 2.28916202e-03 1.34920329e-03 -2.04325508e-04
      -1.85781321e-03 -1.43464864e-03 -3.43275664e-04 -1.73577620e-03
      1.64612452e-03 1.67722802e-03 1.52213988e-03 8.31449754e-04
      1.48716199e-05 -6.67044194e-04 -3.43275664e-04 -3.43275664e-04
      -7.82007002e-04 2.45343940e-03 2.26421608e-03 2.04742374e-03
      1.90823805e-03 5.19820955e-04 5.38493274e-04 -3.43275664e-04
      -2.06959364e-03 -6.69122499e-04 9.42535989e-04 1.70048629e-03
      2.31006369e-03 1.42366975e-03 -1.70359053e-04 -1.55525026e-03
      -1.80427462e-03 -2.31959531e-03 -1.57584704e-03 -2.13872830e-04
      1.32173626e-03 2.35960400e-03 2.08779471e-03 2.50753019e-05
      -1.61898171e-03 -2.17567384e-03 -6.29966380e-04 -1.89142895e-03
      1.92810548e-03 2.22197850e-03 2.21082731e-03 1.84222474e-03
      9.24526423e-04 1.42338825e-03 6.74041221e-04 -3.86367145e-04
      -2.18802295e-03 4.44903446e-04 1.52217376e-03 2.36841710e-03
      1.42108288e-03 1.23361126e-04 -1.49112486e-04 -3.18779959e-04
      -2.55179103e-03 -1.48225063e-03 -1.07058580e-03 7.84444856e-04
      2.67045409e-03 2.06319313e-03 9.21159983e-04 -1.99570274e-03
      -2.51103076e-03 -2.74312589e-03 -9.74388618e-04 -4.25319216e-04
      1.67832442e-03 2.74371402e-03 2.74347467e-03 2.49583670e-03
      -5.29752346e-04 -2.45763408e-03 -3.04421497e-04 -1.98407285e-03
      -9.21203464e-04 5.84437221e-04 2.68690544e-03 1.55901141e-03
      1.25661783e-04 -1.37784600e-03 -8.13732913e-04 -9.09172755e-04
      -8.10302678e-04 8.19123161e-05 1.03597075e-03 2.74547329e-03
      2.72238697e-03 2.11530318e-03 -6.59301004e-04 -8.72558507e-04
      -3.17813409e-03 -8.17414722e-04 -1.57598944e-04 9.53392242e-04
      2.44366727e-03 2.70002079e-03 1.00542116e-03 -3.76385811e-04
      -3.02437553e-03 -3.17125092e-03 -1.24851556e-03 -2.88943498e-04
      2.37500964e-04 3.27969412e-03 3.29469494e-03 9.96873947e-04
      -5.69329888e-04 -3.20466654e-03 -1.87027978e-03 -3.70753260e-04
      2.14745465e-04 8.42938840e-04 2.47169915e-03 3.16843460e-03
      1.24063354e-03 -3.01772961e-04 -1.56429678e-03 -1.13648747e-03
      -8.02763388e-04 3.48097412e-04 9.34453390e-04 3.32401460e-03
      3.19994404e-03 3.54067597e-04 -1.29591010e-03 -2.02436280e-03
      -1.10539305e-03 -3.40105762e-05 2.63728813e-04 7.79740396e-04
      1.82041840e-03 6.83159451e-04 -1.65133257e-04 -1.79680623e-03
      -2.74842279e-03 -8.35462997e-04 4.92464387e-05 2.72152392e-04
      1.15446385e-03 4.16825479e-03 3.61299398e-03 -1.22764194e-03
      -2.89686839e-03 -2.69316370e-03 -2.29883660e-03 9.86979430e-05
      1.71253545e-04 6.61609753e-04 1.55522721e-03 -1.19236262e-04
      -8.86798662e-04 -2.62567727e-03 -2.47507729e-03 -1.97386532e-03
      -6.35982287e-05 1.06153006e-04 2.35205446e-03 3.80449835e-03
      2.07866053e-03 -9.16741828e-06 -2.44742772e-03 -1.53065135e-03
      -9.99556272e-04 -5.80748543e-04 -2.45021249e-04 2.27806246e-04
      2.67789420e-03 2.06893380e-03 -1.17414235e-03 -2.62213731e-03
      -2.63696676e-03 -1.58590451e-03 -1.32045790e-03 -4.75295470e-04
      -1.15594601e-04 2.07204092e-03 1.91499153e-03 -2.06500222e-03
      -2.38185469e-03 -1.81980792e-03 -1.49765867e-03 -7.21856661e-04
      -2.61026347e-04 9.25220957e-04 2.89217732e-03 1.55277597e-03
      1.08445209e-04 -3.99835553e-04 -9.50691232e-04 4.75075853e-04
      -1.05536031e-03 -3.76319193e-04 3.88898188e-04 2.79473257e-03
      1.09157956e-03 -1.15898182e-03 -1.84748415e-03 4.75075853e-04
      -6.16128149e-04 -1.12241134e-03 -2.52716738e-04 1.04045641e-04
      2.70587602e-03 1.43361418e-03 -1.63615006e-03 -2.17113178e-03
      -4.82201285e-04 6.85381587e-04 -2.15979759e-03 -6.04685774e-05
      1.11015688e-04 1.50705734e-03 2.64083385e-04 -7.02781253e-04
      -1.33126241e-03 6.85381587e-04 1.63729046e-03 -3.01389693e-04
      -1.27689927e-04 -2.51284528e-05 6.17299287e-04 1.61012038e-04
      -1.34280953e-03 -2.36039143e-03 6.85381587e-04 8.19353445e-04
      -3.76221113e-04 -2.12203187e-04 -1.05501742e-04 -2.44077644e-04
      -6.95790863e-04 -1.09344814e-03 -2.50565168e-03 6.85381587e-04
      2.15351582e-04 -2.19775457e-03 8.26834585e-04 6.22976397e-04
      1.18949858e-04 -4.79796785e-04 -3.85178952e-04 -9.26845823e-04
      2.15351582e-04 2.15351582e-04 -2.01205676e-03 1.53271668e-03
      1.76836958e-03 1.08717300e-03 2.83629663e-04 1.59801741e-04
      2.14567364e-04 1.07036170e-03 2.15351582e-04 -6.66712585e-04
      -3.78868252e-04 -2.94048339e-04 -9.46866872e-04 -1.75990269e-03
      -8.58275918e-04 -2.36679171e-03 2.15351582e-04 2.15351582e-04
      -7.39374838e-04 1.78083028e-05 -5.74188671e-05 -3.50685819e-04
      -5.18894463e-04 -2.26766497e-04 -3.66159395e-04 1.95817742e-03
      6.42320520e-05 -3.04515660e-03 4.81901312e-04 8.35502753e-04
      8.87899427e-04 4.97951929e-04 2.39251036e-04 5.08674537e-04
      9.95763694e-04 7.47069716e-05 -3.07127181e-03 -4.66270605e-04
      6.59818033e-05 6.84936298e-04 3.24478387e-05 -3.00302258e-04
      -2.18221510e-04 7.47069716e-05 7.47069716e-05 -1.50669052e-03
      -3.20936029e-04 -3.89519788e-04 -3.52956413e-04 -2.34925377e-04
      -2.18803005e-04 -4.28017811e-04 1.92805054e-03 1.37835741e-04
      -1.51685125e-03 -4.31198103e-04 -4.20822907e-04 -5.78447245e-04
      -6.34522759e-04 -4.37730341e-04 -7.69081758e-04 1.66880118e-03
      9.37408186e-05 -3.04674986e-03 -9.17767582e-04 -1.32659276e-04
      3.40257509e-04 -7.27090228e-05 -4.55140980e-04 -9.29776405e-04
      9.37408186e-05 9.37408186e-05 -2.64133560e-03 -7.61806950e-06
      -1.85697019e-04 1.22977700e-03 1.20056979e-03 -1.35657938e-05
      -1.05431699e-03 9.37408186e-05 4.55017376e-04 -1.85459491e-03
      -8.98555387e-04 -3.43497290e-04 -8.36899620e-04 -9.34719807e-04
      -5.53147693e-04 -7.24463258e-04 2.03528162e-03 1.33819715e-03
      -1.40279555e-03 -7.28284766e-04 -3.09017865e-04 -1.14340882e-03
      -6.43476902e-04 -4.47092549e-04 -7.09499698e-04 2.26272456e-03
      1.55606867e-05 -8.38392123e-04 -9.99351614e-05 -1.09704961e-05
      7.21096294e-04 4.72700223e-04 -2.50301062e-04 -1.81142346e-03
      1.55606867e-05 1.55606867e-05 -1.34292524e-03 3.34290788e-04
      3.32135067e-04 2.01932341e-03 1.23110111e-03 -5.81100001e-04
      -3.03962454e-03 1.55606867e-05 2.00429326e-03 -9.66073654e-04
      -4.26793122e-04 -2.38647292e-04 -9.68858483e-04 -8.56509898e-04
      -9.49437730e-04 -2.16725282e-03 1.53638620e-03 1.88223005e-03
      -1.34399254e-03 -2.95968377e-04 -4.48299688e-04 -7.80333998e-04
      -8.24763207e-04 -7.91320053e-04 -2.32026237e-03 1.16790598e-03
      -2.56851828e-03 -3.07600852e-03 -2.96974846e-04 5.08971920e-04
      2.99984962e-03 4.58755007e-04 1.51195505e-04 1.50166408e-04
      1.46311373e-04 2.61640263e-04 -2.66950624e-03 7.33249588e-04
      1.51995360e-03 3.70907970e-03 3.58468125e-04 7.67900856e-05
      3.60988633e-05 1.94319035e-03 -3.20396968e-03 -3.05254641e-03
      -6.66146516e-04 6.87874155e-04 3.95445339e-03 1.18556735e-03
      -5.64873226e-05 -1.89642424e-06 -7.19210366e-04 -2.74177175e-03
      -3.09352600e-03 -8.16490036e-04 2.59804144e-03 3.88345052e-03
      1.12322310e-03 8.41169458e-05 -2.55335126e-05 -3.41452134e-04
      1.08215812e-04 -2.50751013e-03 7.51564337e-04 9.31628281e-04
      2.12015817e-03 7.17986477e-05 1.52814464e-04 1.02765393e-04
      2.81068007e-03 1.08215812e-04 -2.84758583e-03 1.90918596e-04
      9.06625428e-05 -3.99983110e-05 9.84921280e-05 2.61394802e-04
      1.54934387e-04 2.49631074e-03 -1.75064441e-03 -2.70213280e-03
      5.19530615e-04 1.91216671e-03 3.23495781e-03 2.80178792e-04
      6.06516784e-04 6.94616538e-05 4.83137730e-04 -1.03150669e-03
      -2.60503683e-03 7.86374731e-04 2.56089057e-04 4.86899924e-04
      2.49255740e-04 6.79240504e-04 2.12575498e-04 8.73021199e-04
      6.63563609e-04 -2.43825465e-03 4.77213798e-05 2.42057853e-04
      -4.22426128e-05 4.83589138e-05 1.86015604e-04 2.66551098e-04
      2.17899890e-03 6.63563609e-04 -3.53103940e-04 1.19937959e-05
      1.27499516e-04 -5.93650511e-05 -4.87015495e-05 4.38868447e-05
      -1.06836225e-04 1.26781466e-03 -7.96039996e-04 -2.11555138e-03
      2.69823522e-05 7.99041067e-04 4.87147277e-04 2.60788336e-04
      3.54387594e-05 4.59066709e-04 -4.70690138e-04 -2.21471491e-04
      -7.00118602e-04 -9.91914421e-04 2.90829685e-05 7.88187026e-04
      3.67430330e-04 -1.06852356e-04 -7.06507184e-04 -5.11965132e-04
      8.82329652e-04 2.25631724e-04 -7.74000830e-04 -4.54342633e-04
      -1.77862210e-04 -1.74948262e-04 -1.58790586e-04 -1.06592453e-03
      1.36251387e-03 3.25415563e-03 3.31839365e-05 -7.36806309e-04
      -4.69058519e-04 4.12083791e-05 -3.37498641e-05 -1.38103773e-04
      -3.82537692e-04 3.17009585e-03 -3.69666814e-04 -6.94386654e-06
      -2.41152942e-03 -1.75187748e-03 2.14191896e-04 -8.91282762e-05
      9.24065716e-06 -2.60234158e-03 -3.24755325e-04 -1.27611158e-04
      -5.41097368e-04 -2.08044681e-03 -6.26070250e-04 9.98040079e-04
      1.62753422e-04 1.99057613e-04 -2.18310091e-03 1.27891297e-04
      2.77336594e-03 -2.20021218e-04 -4.89194237e-04 6.37554767e-05
      5.18347253e-04 -3.15989280e-04 -4.83149372e-04 1.22391473e-04
      2.86566583e-03 2.85516889e-03 4.00144374e-04 -3.62012885e-04
      5.51969686e-04 6.83338032e-04 -4.19746386e-04 -5.63785434e-04
      1.78257484e-04 2.62071355e-03 -2.05661287e-03 -2.12917454e-03
      -1.06503081e-03 5.70603530e-04 2.42273952e-03 3.00752232e-04
      -1.19675545e-03 -2.86127813e-03 -1.61896076e-03 -1.87134522e-03
      -2.75267172e-03 -9.12793621e-04 1.69004907e-03 1.95724121e-03
      9.82335419e-04 -9.97567549e-04 -1.88017520e-03 -1.98084535e-03
      3.18071246e-03 4.01529287e-05 -1.15686002e-04 4.17675838e-05
      1.87882106e-03 3.39389633e-04 -8.45497823e-04 -5.69120748e-04
      3.04154749e-03 8.97890190e-04 -2.40979367e-04 -1.24334838e-04
      -1.26013590e-04 1.79896515e-03 -1.32581126e-03 -2.30603665e-03
      -2.49820342e-03 2.40219035e-03 -2.38316902e-03 -1.72782550e-03
      -3.28117778e-04 6.58534234e-04 2.88572209e-03 8.43495247e-04
      -3.42531217e-04 -2.73312209e-04 -2.30455049e-03 -3.04102711e-03
      -8.65874521e-04 -4.40004296e-05 6.60215330e-04 2.88075022e-03
      4.23391873e-04 -1.85086916e-03 -1.31960143e-03 -2.76834168e-03
      7.66908517e-04 1.44894884e-05 9.87709518e-06 1.22095462e-05
      2.51912582e-03 4.47868544e-04 -1.79606618e-03 -2.33167992e-03
      1.42121594e-03 1.56288675e-04 1.69716994e-04 2.45941046e-04
      1.64308047e-04 2.26086215e-03 1.59177009e-03 -2.59318040e-04
      -1.53853151e-03 4.63889475e-04 -1.38604292e-03 -1.09682180e-04
      2.98643165e-04 6.96251751e-04 2.89072795e-03 1.92219019e-03
      -2.47231708e-03 -1.75589300e-03 -1.93922478e-03 -1.75672234e-03
      -1.86941907e-04 5.03765710e-04 1.35961245e-03 2.42029550e-03
      1.15015393e-03 -7.28430576e-04 -2.43359408e-03 -1.13659876e-03
      -2.86727562e-03 -2.87917885e-03 -1.50835665e-03 -1.09874869e-04
      3.67271248e-03 6.40542596e-04 -3.91935959e-04 -1.52231325e-04
      -6.40295795e-04 -2.90527381e-03 -2.95893056e-03 -2.44206819e-03
      5.07178367e-04 3.85076995e-03 1.51151419e-03 -1.67283171e-04
      -5.69085358e-04 -7.71815015e-04 -2.24740244e-03 -2.97068665e-03
      -2.00910890e-03 -8.37154570e-04 2.97809253e-03 1.37957220e-03
      -7.18799885e-04 -1.61178003e-04 -4.41508397e-04 -2.64690863e-03
      -2.88020447e-03 -1.86853355e-03 -3.01659544e-04 3.43834516e-03
      3.19390511e-03 -4.64959085e-05 -6.64923456e-04 -8.15857318e-04
      -2.23271642e-03 -2.36462802e-03 -6.39671111e-04 4.46205522e-04
      2.34550540e-03 9.62711114e-04 4.40354022e-04 -1.02911820e-03
      -8.68723029e-04 -1.40682084e-03 -2.09290860e-03 -4.99997986e-04
      -7.15844275e-04 8.31112266e-06 -8.77277562e-05 3.76214826e-04
      -7.34073285e-04 -7.98093970e-04 -8.40092427e-04 -1.48955744e-03
      -5.68454852e-04 7.63095857e-04 2.48792185e-03 2.42348528e-03
      8.39767163e-04 -9.50919115e-04 -3.50186834e-04 4.40147211e-04
      -6.34816883e-04 -4.34885849e-04 1.25174795e-03 2.25355127e-03
      4.96314897e-04 9.23470303e-04 -2.85181188e-04 7.26526254e-04
      -1.50436466e-03 -2.13616202e-03 -9.59088560e-04 5.27402561e-04
      4.73860564e-04 3.47517489e-04 1.34500122e-04 3.46016051e-04
      5.57667634e-04 -1.98490173e-03 -1.93766865e-03 -1.18057732e-03
      4.68210841e-04 9.44153289e-04 8.83555273e-04 7.78564063e-05
      1.39852695e-04 -9.36385710e-04 -2.28557881e-04 -1.26219587e-03
      -2.42754817e-04 1.20938302e-03 2.02865992e-03 1.40951970e-03
      1.51096296e-03 1.39712007e-03 5.83184185e-04 -2.28557881e-04
      -1.13684719e-03 -3.90206114e-04 1.27667736e-03 2.09811819e-03
      2.23798165e-03 1.56630576e-03 2.13402533e-03 -2.28557881e-04
      -7.70507031e-04 -4.27937368e-04 -1.48867068e-04 5.48836193e-04
      1.00069959e-03 1.24115893e-03 5.35228464e-04 -6.44200423e-04
      -1.56683731e-03 -1.77043548e-03 -1.93797995e-03 4.30876651e-04
      1.01456163e-03 1.92426180e-03 8.93469027e-04 1.08419731e-03
      -1.12491893e-03 -1.69207121e-03 -5.35475323e-04 -8.58608924e-04
      8.77665414e-04 1.89620955e-03 1.80908199e-03 1.80313003e-03
      6.72874448e-04 1.82556885e-03 -5.35475323e-04 -5.35475323e-04
      -1.76021224e-03 1.19357568e-03 1.21014297e-03 1.72902877e-03
      1.34284096e-03 1.38948055e-03 9.95689654e-04 -5.35475323e-04
      -2.40334612e-03 -2.23590573e-03 5.43770962e-04 1.89617486e-03
      2.97170691e-03 1.46146375e-03 6.41659601e-04 -1.01171841e-03
      -2.38988572e-03 -2.70028482e-03 -2.18127226e-03 2.34979496e-04
      2.96348496e-03 2.96042790e-03 1.95084244e-03 3.92524147e-04
      -6.59527490e-04 -2.15548580e-03 -7.79183523e-04 -2.18329136e-03
      8.95949546e-04 1.40716531e-03 2.86815688e-03 1.63382478e-03
      1.60675705e-03 -7.56279507e-04 -1.44268130e-03 -2.02879985e-03
      -2.16513290e-03 7.19803444e-04 2.92697083e-03 2.80582602e-03
